baseline/conv2d/kernel:0
(5, 5, 3, 6)
[[[[ 1.65882722e-01  2.62817055e-01 -7.03262836e-02 -4.33246866e-02
    -3.19210626e-02 -1.56543404e-02]
   [-1.18354335e-01  1.64424837e-01  4.40080538e-02  5.45712793e-03
     8.10045227e-02  2.95284148e-02]
   [ 4.63622324e-02 -1.10506184e-01  8.98473412e-02  2.33977556e-01
    -1.86050102e-01  1.36636551e-02]]

  [[ 1.93531901e-01  8.11730698e-03 -1.75673336e-01 -4.57579643e-02
    -3.41201350e-02 -1.21355169e-01]
   [-2.83187199e-02  1.51831254e-01  2.66511738e-02  6.15429655e-02
     2.55772382e-01 -3.50185335e-02]
   [ 7.16606379e-02 -1.78047922e-02  6.53398857e-02 -4.32239845e-02
     1.65308088e-01 -4.22973111e-02]]

  [[ 2.29403630e-01  1.61047071e-01  3.73019017e-02 -1.26550287e-01
     1.21082224e-01 -1.44298926e-01]
   [ 1.37106076e-01 -8.08463842e-02  1.58875808e-01 -7.06581101e-02
     1.62235320e-01  1.63018573e-02]
   [ 6.32038340e-02  6.35478646e-02 -3.07705123e-02 -2.18667071e-02
    -3.24329399e-02 -4.80853543e-02]]

  [[ 3.51993814e-02  7.82697424e-02 -2.14340806e-01  1.03768930e-01
    -2.01342091e-01  1.49527574e-02]
   [ 8.75486508e-02 -1.34763151e-01 -5.42889759e-02 -1.04157977e-01
    -2.86842674e-01 -4.63722162e-02]
   [ 1.66147932e-01 -4.39921804e-02  1.90914243e-01 -1.55107960e-01
    -1.98119223e-01  9.84262675e-03]]

  [[ 1.48439810e-01  2.39807516e-01 -1.07016653e-01  2.00323597e-01
     1.14042036e-01  3.47274207e-02]
   [-9.10447016e-02 -1.19086199e-01  5.33206053e-02 -1.10928081e-01
    -5.58135547e-02  1.15165353e-01]
   [-3.20693366e-02 -1.27639830e-01  1.36897475e-01 -3.30370888e-02
     6.67047352e-02  3.51928174e-02]]]


 [[[-3.80372144e-02  2.23677993e-01 -1.50558352e-01 -5.40011413e-02
     1.72141731e-01 -1.55232355e-01]
   [-2.87842378e-02 -3.35843898e-02  1.19370751e-01 -2.00504735e-02
    -2.62595005e-02 -1.12019800e-01]
   [-1.30392909e-01 -6.52521942e-03  3.97157520e-02  2.15287596e-01
    -5.22955246e-02  2.45296247e-02]]

  [[ 3.34956199e-02 -4.09319028e-02 -6.40570372e-02 -1.72256026e-03
     1.09414570e-02 -1.20836422e-01]
   [ 2.86662504e-02 -8.00582319e-02  2.92537957e-02  6.74488395e-02
     5.58563210e-02 -1.43410712e-01]
   [ 1.47174209e-01 -5.59442043e-02  7.32503086e-02  2.28840441e-01
     1.18461922e-01  1.92873910e-01]]

  [[ 3.90437455e-03 -1.12132011e-02 -2.51371056e-01  1.10046335e-01
    -2.31975555e-01 -7.95976296e-02]
   [ 1.53469622e-01 -1.13338493e-01 -2.66424958e-02 -1.00897364e-02
    -1.80219576e-01  6.12862132e-05]
   [ 3.15362290e-02  7.96355903e-02  2.11097836e-01 -1.02578774e-01
    -2.70009249e-01  7.51594305e-02]]

  [[-8.96950960e-02  9.82155558e-04 -2.71902829e-01 -9.76617076e-03
    -2.25149505e-02 -7.03043640e-02]
   [-7.51336068e-02 -2.62924492e-01  1.90332696e-01 -1.07879803e-01
    -7.25192018e-03  1.25089452e-01]
   [ 3.72710079e-02 -4.17958163e-02  1.78622827e-01 -1.26354679e-01
    -1.58794776e-01  3.45119864e-01]]

  [[-6.61637336e-02 -7.70726986e-03 -9.78353843e-02  1.53762266e-01
     1.29700750e-01  3.32207792e-02]
   [-1.22327179e-01  1.54069498e-01 -1.04338273e-01 -2.34855846e-01
     6.70721456e-02  1.01397336e-02]
   [-2.80177556e-02 -1.29951537e-01  1.65088251e-01 -1.68734744e-01
     2.97846287e-01  2.04432562e-01]]]


 [[[-1.53250486e-01 -4.92590517e-02 -1.10935591e-01  1.61320493e-02
    -1.22372918e-01 -1.11528926e-01]
   [-1.38643548e-01 -2.32783845e-03 -2.33152527e-02 -9.38087516e-03
     1.96559399e-01 -1.49881750e-01]
   [-5.64010255e-02  1.05025463e-01 -5.59994727e-02  5.49785718e-02
     6.43275008e-02  4.47630771e-02]]

  [[-3.45927685e-01 -2.28724610e-02 -3.44109684e-02  6.50272295e-02
    -1.27283648e-01 -4.21600454e-02]
   [-2.70866811e-01 -1.07520826e-01  3.74407619e-02  8.20308104e-02
    -4.33027595e-02 -1.24806739e-01]
   [-2.65318453e-01 -8.32523480e-02  6.15438484e-02  6.21168651e-02
    -1.52370170e-01  1.46722257e-01]]

  [[-2.41529256e-01 -1.72301114e-01 -1.95387334e-01  1.83916965e-03
    -8.31439719e-02  8.18347745e-03]
   [-2.33459085e-01 -1.62893996e-01  9.58191901e-02  1.14518777e-02
    -2.02810496e-01  2.18468085e-01]
   [-1.49710238e-01 -2.87769381e-02  1.77824616e-01  1.41058043e-01
     1.13403827e-01  1.31634444e-01]]

  [[-1.10127069e-01 -1.32165551e-01 -1.58547804e-01  5.76066598e-02
     1.93127692e-01  5.65461256e-02]
   [-9.28663909e-02 -2.93595400e-02  1.17790945e-01 -3.32782194e-02
     2.70747185e-01  8.19436386e-02]
   [-9.53324214e-02 -1.70710936e-01  1.81900993e-01 -2.19183378e-02
     2.22795196e-02  2.61778742e-01]]

  [[-2.00723428e-02  2.39433311e-02 -1.01337537e-01 -6.48409575e-02
    -8.01397935e-02  2.21623015e-02]
   [ 1.44869342e-01  8.95254388e-02 -1.53647631e-01 -2.78465003e-01
     5.60147315e-02  7.67497569e-02]
   [ 1.45275488e-01  2.37726104e-02  1.31448597e-01 -2.60395616e-01
    -5.28259799e-02  7.27164522e-02]]]


 [[[ 1.31319314e-01 -3.57379615e-02  6.90239668e-02 -1.31820561e-02
     3.15525644e-02  1.34013489e-01]
   [ 5.28477840e-02 -8.97272006e-02  4.54525650e-03 -1.36074945e-01
     9.18943882e-02 -1.91234946e-01]
   [ 2.28875771e-01 -3.06218956e-02 -2.29082853e-01  1.41679227e-01
     2.61126813e-02 -3.81433666e-02]]

  [[ 1.00847751e-01 -2.03155652e-01  6.21607415e-02  4.87617515e-02
     3.15374695e-02  6.30079508e-02]
   [ 1.33729100e-01 -2.05251515e-01 -1.10129833e-01  1.94446474e-01
    -2.34787166e-01 -1.73877049e-02]
   [-8.94150808e-02  7.94186518e-02 -1.87623113e-01  2.69458052e-02
    -1.98389798e-01  2.31062278e-01]]

  [[ 6.00859113e-02 -1.56842291e-01 -7.36077949e-02  3.89187261e-02
     1.64784938e-02  2.15228394e-01]
   [-6.96236715e-02 -1.55685410e-01 -2.12276261e-02  1.80777490e-01
     1.12102769e-01 -3.69911417e-02]
   [ 1.76028714e-01  1.66727930e-01 -6.20851200e-03  9.25351232e-02
     3.86583842e-02  2.75257118e-02]]

  [[ 7.19040111e-02 -7.27179227e-03 -1.16584085e-01  1.37376830e-01
     1.13692127e-01  3.92972007e-02]
   [ 4.61543240e-02 -8.63884687e-02 -1.57012716e-01 -1.12060122e-02
    -5.47549836e-02  3.20479050e-02]
   [-4.42632250e-02 -1.75153092e-02 -1.73029125e-01  4.88742068e-02
     2.33873367e-01  6.49956092e-02]]

  [[ 9.04040486e-02 -1.33764762e-02  8.19377080e-02 -1.35163113e-01
    -1.06030390e-01  1.02726452e-01]
   [-1.75375417e-01 -4.77874093e-02  5.88503107e-03 -1.41716227e-01
    -4.84525450e-02 -2.26251990e-01]
   [ 3.48035581e-02  2.37067580e-01 -1.77595958e-01 -2.20727637e-01
    -6.86920360e-02 -6.24813475e-02]]]


 [[[-1.33756995e-01 -2.13801131e-01  1.15761861e-01 -1.27395019e-01
    -9.96291116e-02  2.09123567e-01]
   [-1.02343775e-01 -2.11243600e-01  1.43820629e-01 -8.09416547e-02
     3.49121094e-02 -9.88205001e-02]
   [ 1.21985391e-01  7.46274143e-02  1.46250520e-03  1.36639280e-02
    -1.18243054e-01 -1.17050521e-01]]

  [[ 1.21372029e-01 -7.47493654e-02  2.78007418e-01  7.74696171e-02
    -2.12968104e-02  1.89220563e-01]
   [ 1.47137001e-01 -1.50543021e-03 -1.34665236e-01 -1.15486033e-01
     4.61539021e-03  1.73528999e-01]
   [ 1.21771256e-02 -9.70497951e-02 -7.00795650e-02  1.20628528e-01
     9.99151319e-02 -1.85172677e-01]]

  [[ 6.87682331e-02 -2.23971814e-01  1.24142051e-01 -8.11945722e-02
     1.80578306e-01  1.71128064e-01]
   [ 5.31304032e-02  6.84860051e-02  4.31250520e-02  3.09646525e-03
     1.35629907e-01  8.00409988e-02]
   [ 2.39443332e-02  6.80991560e-02 -4.48525921e-02  2.60318816e-01
     2.25792397e-02 -1.18237227e-01]]

  [[ 5.60291931e-02 -6.01914115e-02  2.44930059e-01  2.04538420e-01
    -1.27942041e-01  1.99988171e-01]
   [-1.51109817e-02 -4.35934886e-02  2.07619946e-02 -1.12442542e-02
    -1.02518968e-01 -3.79801802e-02]
   [ 1.79730467e-02  1.58660710e-01 -3.98810022e-02 -8.47264379e-03
     7.14278892e-02 -2.66747266e-01]]

  [[ 5.74232191e-02  2.05134097e-02  2.46650830e-01 -5.43783344e-02
     1.18164038e-02  1.07412323e-01]
   [-5.15570492e-02  1.12049110e-01 -1.10428184e-01 -1.18819259e-01
    -2.03787893e-01 -1.95261851e-01]
   [-1.69122234e-01  3.48939002e-01 -6.89034685e-02 -2.51469225e-01
     4.89919260e-02 -2.30797768e-01]]]]
baseline/conv2d/bias:0
(6,)
[ 0.09416138 -0.0040378  -0.01075728 -0.10041835  0.02862058 -0.00508741]
baseline/batch_normalization/gamma:0
(6,)
[0.9501863  0.8181198  0.73606443 0.91182494 0.779794   0.65803593]
baseline/batch_normalization/beta:0
(6,)
[-0.5048064  -0.39635816 -0.18728788 -0.1547697  -0.24768229 -0.3577231 ]
baseline/dense/kernel:0
(1536, 128)
[[ 3.26533131e-02 -8.80460721e-03 -8.48951098e-03 -2.51431763e-03
   2.94829085e-02  4.05772813e-02 -5.26276529e-02 -5.26512414e-02
   1.24390796e-03 -5.54465987e-02 -6.75612502e-03  4.10787165e-02
  -2.78522782e-02  4.07870412e-02  9.58175212e-03 -6.54721558e-02
   5.83485216e-02  1.14035630e-03 -1.01980619e-01  4.54760045e-02
   2.42547933e-02  1.98672339e-03 -4.74266820e-02 -2.99018584e-02
   1.42299220e-01 -5.57771809e-02 -1.35634635e-02 -3.07703950e-02
   6.04198761e-02 -5.08695915e-02 -1.07259363e-01 -8.61281122e-04
  -5.27793430e-02  4.90650684e-02  7.75780529e-03 -1.73420552e-02
  -1.39174715e-01 -2.43258774e-02  5.43539450e-02 -8.21497664e-02
  -7.23439530e-02 -2.32564285e-02  6.58153445e-02 -1.12140551e-02
  -5.38015217e-02 -1.23299323e-02 -3.14681157e-02  3.54858339e-02
   1.17526669e-02  4.30486351e-03  4.21037525e-02 -9.60159823e-02
   3.63399655e-01  5.59461191e-02 -8.41704197e-04 -5.14839813e-02
  -2.77691185e-02 -1.40320798e-02 -1.30960003e-01 -2.98408940e-02
   1.64982043e-02 -6.51414171e-02  4.39926237e-02 -1.05176587e-02
   2.23101452e-02 -7.36693442e-02 -2.36834623e-02  8.94268081e-02
  -1.55415237e-01 -5.50368503e-02 -4.73467782e-02  2.43578911e-01
   1.28171861e-01  1.93578713e-02  1.36522576e-01 -1.09620793e-02
  -4.90507111e-02 -1.80448610e-02 -5.26701435e-02 -1.17490143e-01
   6.73099011e-02  1.14210263e-01 -1.25896782e-01  1.59159079e-02
  -6.92012757e-02 -4.93389480e-02 -4.73620743e-03  2.68506389e-02
  -8.58671498e-04 -3.08248438e-02 -3.83047527e-03 -5.47204614e-02
  -7.46276304e-02  3.86024304e-02  3.68134938e-02  2.37069279e-02
  -2.31460944e-01 -4.70896438e-02 -4.79386672e-02 -4.14649770e-02
   8.14632475e-02 -7.94526488e-02  8.35848600e-03  1.41716795e-02
  -1.15923109e-02  9.35910568e-02 -1.53511509e-01  1.23226665e-01
  -5.07172048e-02  4.64310125e-02 -5.06885312e-02 -1.43024568e-02
   2.84236949e-02 -7.80481938e-03  5.57246804e-03 -3.68400104e-02
  -9.18986872e-02 -8.38951394e-02 -2.05882676e-02  8.15294608e-02
  -2.99500842e-02 -5.26175126e-02 -1.69304699e-01 -5.11379428e-02
  -4.39001173e-02 -5.52767031e-02 -5.29171946e-03 -3.06859948e-02]
 [-2.14085896e-02  9.23569081e-04 -8.51497576e-02 -1.66439526e-02
  -2.51833703e-02 -1.76452827e-02 -2.64524240e-02  2.38235034e-02
  -1.00227363e-01 -5.37064299e-02 -6.96521401e-02 -6.29809871e-02
  -1.24625796e-02 -2.46744957e-02 -5.07615283e-02 -2.98659820e-02
   3.85492854e-02 -9.78279263e-02 -2.67313085e-02  2.66716853e-02
   4.55090851e-02 -3.45884636e-02 -5.87630682e-02 -1.22769931e-02
   9.50716883e-02 -7.53874108e-02  2.47110589e-03  2.22333707e-02
   1.06131509e-01 -7.64621869e-02 -7.63635989e-03 -7.05617759e-03
  -5.30488379e-02 -7.75014833e-02 -1.73039027e-02 -1.37928585e-02
   9.84779373e-02 -6.94686249e-02 -1.51814613e-02  1.35207688e-02
  -5.18219993e-02  2.66659795e-03  8.18695128e-03 -1.91347897e-02
   4.89757955e-02  1.57084186e-02 -8.06124881e-02  1.50073543e-02
   5.30029647e-02 -1.15259904e-02 -1.89797115e-02  2.91404268e-03
   1.09934360e-01 -4.86007221e-02 -9.38756913e-02  4.46894728e-02
   1.68762151e-02 -1.00706235e-01  1.14922509e-01 -6.76747411e-02
   4.32892963e-02 -3.47772874e-02 -6.15088940e-02 -3.73326130e-02
   1.93471294e-02  2.38599945e-02  5.76979443e-02  1.19818792e-01
  -1.31062537e-01 -7.60720372e-02  3.28416154e-02  9.28379744e-02
   8.71752501e-02  6.60328940e-03  1.63341388e-01  2.21755654e-02
   1.36120645e-02  3.75904888e-02  2.06196345e-02 -7.17460290e-02
   4.22171876e-02 -2.65603270e-02  3.81711684e-02 -2.40614805e-02
   4.58901823e-02  2.10758001e-02 -1.27070956e-02  3.88437882e-02
  -1.24523826e-02  1.13534834e-02 -2.76849363e-02 -1.39848012e-02
   3.73872519e-02  7.87194893e-02  8.05151183e-03  4.89754900e-02
   3.98097523e-02  4.76995157e-03  1.02635203e-02 -1.20609216e-02
  -5.94334044e-02  1.10725723e-01  2.88261287e-02 -2.16982253e-02
  -7.75817782e-02  6.15959726e-02 -6.98052272e-02 -4.69272882e-02
  -3.00473664e-02  6.87682629e-02 -4.45670299e-02  4.32353094e-02
  -2.33734325e-02 -2.33001467e-02 -7.48467296e-02 -5.38695045e-02
  -6.35268688e-02  1.29629418e-01 -4.50810380e-02  2.18083598e-02
  -1.38165019e-02 -4.92388494e-02  3.32399942e-02 -6.49243146e-02
  -3.76316011e-02 -3.73902544e-02  2.51502618e-02  2.98089832e-02]
 [ 2.09415555e-02 -6.84370399e-02 -2.43408680e-02 -4.89537232e-02
  -3.59930694e-02  3.03729228e-03 -5.89774214e-02 -9.96390581e-02
  -6.18699603e-02 -4.45697494e-02 -5.67762107e-02 -1.58332698e-02
   5.15397377e-02  4.97151837e-02  2.44960114e-02  6.21280745e-02
   1.84454699e-03 -3.07921581e-02 -4.20345180e-02  1.14429602e-02
  -1.62235666e-02  5.18667102e-02  9.29041207e-03  4.34420072e-03
  -6.23471290e-03  6.21476732e-02  7.40291253e-02 -3.43411788e-02
   3.64200212e-02  6.85016438e-03 -3.97244794e-03 -7.37578273e-02
  -2.73953080e-02 -1.11908074e-02 -1.69448815e-02  2.09881086e-02
   3.97204570e-02 -5.14190942e-02  7.71118030e-02  1.48136425e-03
  -7.17964536e-03 -4.78384532e-02  3.35945711e-02  1.61810070e-02
   2.18123570e-02 -6.34887591e-02 -1.89902276e-01  2.72106491e-02
  -5.89854596e-03  4.06131670e-02  4.05550785e-02 -3.32363136e-02
   7.10697919e-02 -4.53783572e-02 -2.92215407e-01 -5.03427982e-02
   4.06326614e-02 -4.29469459e-02 -4.49386192e-03 -3.70195135e-02
  -4.98629622e-02 -4.49945703e-02  2.87612136e-02  3.66813205e-02
  -9.98004060e-03 -4.17306833e-02  7.64267566e-03 -1.05247140e-01
   8.94137565e-03 -6.38409629e-02 -1.20962216e-02 -2.42231600e-02
  -1.89819351e-01  7.03509524e-02  9.41279605e-02 -3.79523169e-03
  -2.30847616e-02 -1.55576486e-02 -8.76624584e-02  1.64240345e-01
   1.02215827e-01 -8.19560885e-02  6.18356466e-02 -4.37076241e-02
  -1.25224255e-02 -2.74942741e-02 -5.99473529e-02 -1.18211858e-01
  -2.75636483e-02  7.59673864e-02 -6.85852170e-02  1.05870888e-03
  -2.17271969e-02 -9.86666903e-02  1.14638719e-03 -3.12361699e-02
  -1.87897147e-03 -1.96588598e-02 -1.48903981e-01 -3.28577273e-02
   4.07489389e-03 -1.11614719e-01 -4.59659025e-02 -1.95752867e-02
   1.00572594e-02 -1.55625939e-02 -5.05731776e-02 -1.17321320e-01
  -2.90000513e-02 -5.76203316e-02 -3.47891450e-03  5.83222620e-02
  -4.70474809e-02 -5.95406666e-02 -2.24433374e-02  6.23799637e-02
  -1.00630045e-01  6.78050742e-02 -2.12848131e-02  2.60649528e-02
   3.45897377e-02 -3.51542095e-03 -1.04893602e-01 -8.97316411e-02
  -3.97298634e-02 -5.40208295e-02  3.01015526e-02  6.43533096e-02]
 [ 5.58626950e-02  1.08743366e-02  5.57928048e-02 -3.48742343e-02
  -6.48955405e-02  3.40402462e-02  6.54483913e-03 -5.49345985e-02
   2.94828173e-02 -1.88558251e-02 -1.86619442e-02 -6.82829693e-03
  -8.25207904e-02 -2.21186224e-02 -4.77686748e-02  5.78564070e-02
   1.18587196e-01 -2.03581750e-02  1.20061107e-01 -3.18835466e-03
  -4.60300744e-02  3.90013084e-02 -5.15329801e-02  2.08922103e-02
  -6.56609759e-02 -2.90279239e-02 -4.39605415e-02 -3.06966957e-02
  -7.75859579e-02 -1.08872550e-02 -1.06236211e-03  8.69886670e-03
  -9.84118581e-02  1.07736401e-02  8.34672246e-03 -3.36151831e-02
  -7.87323806e-04 -1.59806926e-02  7.92865902e-02 -2.22898144e-02
  -6.95950612e-02 -2.96650846e-02  2.95488280e-03 -2.73243487e-02
  -4.02601026e-02 -1.07488651e-02  4.78643216e-02 -2.53606215e-02
   8.09917133e-03  3.35953459e-02  3.13254818e-02  9.24695283e-02
  -2.65664514e-03 -2.01973040e-02 -1.17060572e-01  1.71544850e-01
  -6.15333840e-02  1.39552414e-01  1.08839404e-02 -4.02277671e-02
  -9.64480452e-03 -3.42037715e-02  5.44606969e-02 -4.92078513e-02
  -4.30009253e-02 -1.67973742e-01  8.02908912e-02 -8.24748203e-02
   1.09048910e-01 -2.62136962e-02  1.04327714e-02 -6.10118024e-02
  -1.70746982e-01  1.48868814e-01  6.43808162e-03 -3.94783169e-02
   2.62812432e-02 -5.75125031e-02 -4.72530862e-03 -3.56954299e-02
   1.89340934e-02 -7.83696175e-02 -1.21865829e-03 -2.04905253e-02
  -1.60779692e-02  5.01297298e-04  5.68599962e-02 -1.26573429e-01
  -4.92728911e-02  4.06067586e-03 -6.00961931e-02  5.28420694e-02
  -4.12644632e-02  3.38251935e-03 -4.09475900e-02 -5.41609414e-02
  -4.98889796e-02  4.68737707e-02  1.24371752e-01 -1.51252048e-02
   1.76365324e-03  8.84170309e-02 -2.60830461e-03  3.48528428e-03
  -2.78791059e-02  7.63830170e-02  4.18888144e-02  1.64299846e-01
  -1.74033791e-02 -5.71886078e-02  3.59795429e-02  2.13878304e-02
   9.08957515e-03  4.02205773e-02 -3.42238136e-02 -6.04367666e-02
  -2.41278615e-02  6.32133409e-02  7.99109042e-03  7.16873780e-02
  -6.34468421e-02  1.95805114e-02  8.08521435e-02 -6.09693071e-03
  -6.63419534e-03  3.85186337e-02 -4.64094430e-02  3.38500552e-02]
 [-8.99041072e-02  4.08547483e-02 -9.92267299e-03 -1.10381199e-02
  -6.79365546e-02 -5.87741612e-03 -1.46424631e-02  2.81116962e-02
  -9.80418175e-03  1.37773734e-02 -6.30408227e-02 -2.95697059e-02
  -3.32784951e-02 -3.70479524e-02 -5.74746765e-02 -8.09579249e-03
   2.21514702e-02 -5.31431511e-02 -2.83960477e-02 -4.98927683e-02
   3.22924405e-02 -9.13466420e-03 -3.93842459e-02  4.10693735e-02
  -3.43919657e-02 -4.61205952e-02  1.09923666e-03 -2.39656195e-02
   5.83449006e-02  2.55869813e-02  5.16332202e-02 -7.46759549e-02
   1.13648087e-01 -6.36472404e-02 -3.68261300e-02 -4.54993472e-02
   2.62667928e-02 -8.34388286e-03 -5.43184578e-02  1.85742807e-02
  -2.64275577e-02  4.74757627e-02 -1.70886740e-02  4.85586561e-03
  -3.04965004e-02  7.42264837e-02 -1.98414624e-02  2.59290263e-03
   2.97507308e-02  2.82075051e-02  3.06867040e-03  1.28235659e-02
   4.38085608e-02 -3.80020798e-03  3.47953513e-02  4.48643863e-02
   1.42589491e-02 -7.03215525e-02  1.71934702e-02 -2.12264974e-02
  -3.12451217e-02 -6.17368743e-02 -6.26945123e-02  1.91300139e-02
  -3.43725877e-03  6.44893050e-02 -3.42831835e-02  2.67448537e-02
  -3.38151604e-02  6.31191134e-02  8.82867374e-04 -2.49379966e-02
   3.19585912e-02  3.27951871e-02 -5.37478030e-02 -3.54194567e-02
  -7.25056753e-02 -2.63978243e-02 -6.29239306e-02 -1.38797211e-02
   5.67394868e-02  6.34836331e-02  3.30882594e-02 -4.73237708e-02
   6.75450126e-03  1.68037005e-02 -9.21114460e-02  5.90026565e-02
   7.49016553e-03  1.28536206e-02 -2.09744070e-02  1.70079172e-02
  -4.01192494e-02  5.06877601e-02 -8.57615494e-04 -2.86062364e-03
   3.30758318e-02 -7.92576969e-02  8.51560291e-03  1.15129119e-02
   2.21319348e-02  6.43933415e-02  1.88170131e-02 -6.99219704e-02
  -8.43405549e-04 -3.23054120e-02  2.09234338e-02 -2.88566053e-02
  -1.60257109e-02 -2.70962790e-02 -3.46928686e-02  2.36525410e-03
   3.65769602e-02 -4.99527045e-02 -5.45782559e-02  7.74352578e-03
   6.99071884e-02  1.31921005e-03 -5.32157719e-02 -7.87246227e-02
   2.29971781e-02 -5.42895272e-02  1.46810822e-02  4.75654714e-02
  -2.24995129e-02 -4.31014560e-02 -2.36278381e-02 -6.37617484e-02]
 [-1.79418363e-02 -7.76863471e-02  4.50839885e-02  3.55666615e-02
   4.26732674e-02  1.62433777e-02  2.38217805e-02  2.49965768e-02
   1.17791155e-02 -5.47005162e-02  1.14195924e-02  2.02214066e-02
  -4.68508042e-02 -3.80002777e-03 -8.82054865e-02 -2.58155037e-02
  -2.86209192e-02 -5.19857332e-02  1.49283614e-02  3.39403264e-02
  -3.37013863e-02  2.88099684e-02 -6.07755827e-03 -8.93028046e-04
  -1.45426527e-01 -6.43638521e-02  4.08423357e-02 -1.82136614e-02
  -2.27781851e-02 -7.46544730e-03  9.94220674e-02 -1.04142524e-01
   8.82035643e-02 -5.42199425e-02  3.38138416e-02  1.30733987e-02
   2.77666695e-04  2.71422546e-02  4.64728996e-02 -3.60201076e-02
   5.05612530e-02 -1.75490137e-02  3.77252437e-02 -6.71524778e-02
  -4.31521982e-02 -5.50708845e-02 -5.62660769e-02 -5.75407408e-02
  -4.55912128e-02  3.21499221e-02 -5.66842407e-02 -7.38016292e-02
  -1.66555479e-01  1.48408590e-02  8.35138559e-02  6.52252436e-02
  -4.73633371e-02 -1.08771555e-01  1.01468407e-01  3.49294348e-03
   2.75395624e-03  3.35442796e-02  4.55953106e-02  1.98718980e-02
  -4.96497303e-02  9.33512151e-02  3.67306322e-02  4.22105426e-03
  -3.80835570e-02 -6.44146800e-02  4.68827179e-03 -4.65862034e-03
   1.00484677e-01 -6.03197180e-02 -1.62338898e-01 -4.87068994e-03
  -1.92814954e-02 -2.20631938e-02 -2.50236988e-02  7.40810111e-02
  -3.62895615e-02 -1.93331704e-01  5.86640043e-03 -8.30434486e-02
  -5.37306406e-02 -4.55927849e-02 -4.96505015e-02  5.30259460e-02
   2.88100969e-02 -5.12093715e-02  4.89238240e-02 -1.59885325e-02
  -3.01199760e-02 -5.10418862e-02  3.02739870e-02  3.48457024e-02
   7.39250332e-02  2.78277695e-02 -1.32068591e-02  7.39439428e-02
  -1.54591119e-02  8.56890231e-02  3.61745358e-02  1.95004940e-02
  -2.22862698e-02 -1.41056493e-01  6.33658469e-02 -8.28847811e-02
   1.78414546e-02 -1.66925322e-02  5.92639158e-03 -7.55747897e-04
   4.47119437e-02 -5.85239716e-02  8.69030878e-03 -7.29803815e-02
   7.76694268e-02 -8.58549848e-02  9.94050689e-03  1.31936278e-02
  -2.92896181e-02  2.38797180e-02  2.13646591e-02 -2.33552940e-02
  -4.61315736e-03 -9.05788615e-02 -6.48134202e-02  5.15341312e-02]
 [-4.90620658e-02  6.05772100e-02 -4.21095602e-02  5.38262054e-02
  -8.36334005e-03  4.25395779e-02  4.63446602e-03 -1.18298968e-02
  -1.26978420e-02  6.04814962e-02  6.16747513e-02  1.95160359e-02
  -2.53936909e-02 -3.32679786e-02  4.14933339e-02 -1.10636562e-01
   2.05883861e-01 -2.38223653e-02  3.22303548e-02  4.89188284e-02
   4.63173091e-02  4.70899045e-04  3.88659760e-02  3.03084869e-02
  -5.19262813e-02 -5.10065071e-03  3.87168303e-02  2.45060325e-02
  -1.02037884e-01 -4.65621613e-02 -7.32867494e-02 -3.11127980e-03
  -6.16804734e-02  2.67514437e-02 -4.48989496e-02  4.12897691e-02
   1.36686666e-02  5.90038970e-02  6.39955848e-02 -5.35490587e-02
  -1.03816343e-02 -2.68506184e-02 -1.31226406e-02 -2.98818517e-02
  -3.55046019e-02 -1.69444848e-02 -1.21777631e-01 -1.53892664e-02
  -6.27421886e-02 -8.94115865e-03 -3.46025825e-03 -5.18148877e-02
   2.14243725e-01  5.92656136e-02  1.96534991e-01 -5.47331758e-02
   4.50543240e-02  9.27607045e-02 -1.69888642e-02  4.48913574e-02
   5.06263264e-02 -5.16115129e-03  2.51442064e-02  3.55058610e-02
  -3.64681818e-02 -7.15571940e-02  3.63537744e-02  1.54317738e-02
  -2.87032038e-01  4.55157049e-02 -4.67398949e-02  2.01041132e-01
   2.80100048e-01  2.76560094e-02  9.22037736e-02  5.13954051e-02
   3.70477401e-02  1.67192183e-02 -1.79366153e-02  4.57884595e-02
   1.10259660e-01  1.39968432e-02 -4.77100126e-02  1.94110572e-02
   1.44771859e-03 -5.94996661e-03  3.62646803e-02  1.98566273e-01
  -7.14107556e-03 -3.05043999e-02  6.66884482e-02 -4.50959168e-02
  -8.21307078e-02 -1.31938770e-01 -1.46124894e-02 -2.40589418e-02
  -1.01392664e-01 -4.53021303e-02 -4.84448411e-02 -4.17466387e-02
  -1.51961772e-02 -1.94550216e-01  4.05647233e-02 -5.70387580e-02
  -1.45272240e-02  3.53042521e-02 -2.18902588e-01  6.24512620e-02
  -2.36885529e-02 -3.00643649e-02 -3.75153422e-02 -8.61058012e-03
  -6.70238882e-02  4.25776988e-02 -8.23968798e-02  5.88819161e-02
   9.75074098e-02 -5.74498922e-02 -5.45817129e-02 -2.17589419e-02
   3.59732658e-02  3.19892913e-02 -1.05455093e-01 -4.82324027e-02
   1.28762266e-02 -1.33523531e-02 -3.76219079e-02  2.82274559e-02]
 [-4.03306894e-02 -1.78896785e-02 -2.23356225e-02 -6.26469105e-02
   4.04002927e-02  1.83120389e-02 -6.28405139e-02 -1.11188022e-02
   3.81178632e-02  6.26576738e-03 -5.11453748e-02  2.66189612e-02
   4.48016711e-02  3.49501483e-02  3.19109857e-02 -1.65265743e-02
  -1.31616756e-01 -1.43117178e-02 -6.41344041e-02 -7.15243220e-02
  -7.97504839e-03 -1.83585659e-03 -5.66055961e-02 -1.55609334e-02
   8.23560208e-02  1.13648316e-02  2.43479386e-02 -2.07887273e-02
  -7.76764899e-02 -2.71993447e-02 -8.71280506e-02  5.11261914e-03
  -1.00071326e-01 -3.72236855e-02 -1.56123862e-02 -3.64724472e-02
  -6.53385669e-02 -1.41565977e-02 -3.64087448e-02 -6.26071356e-03
  -9.02942717e-02  1.97638031e-02  5.34611046e-02  8.32457189e-03
  -3.03884987e-02  3.72740328e-02  4.01356705e-02  1.10386610e-02
   2.82643866e-02  1.09160477e-02  9.65391379e-03  2.71540531e-03
   1.14041217e-01 -5.93944006e-02 -8.79953280e-02 -7.35836700e-02
   2.98369024e-02 -8.05838127e-03  2.93436646e-02 -3.40166315e-02
   7.85305630e-03  4.89701051e-03  1.12409582e-02 -5.06451838e-02
   5.27408868e-02 -2.52045453e-01 -4.40172069e-02  7.57033005e-02
  -4.74159196e-02 -6.45931587e-02  6.92404956e-02  4.45352234e-02
  -2.51918554e-01 -6.22914508e-02  3.96646522e-02  1.39790019e-02
   4.18493338e-02  4.28480506e-02  2.91454867e-02 -1.24815837e-01
  -3.11778821e-02  3.33417393e-02 -7.31645077e-02  2.32185666e-02
  -2.77459458e-03  2.58472748e-02 -5.04390411e-02 -1.22035399e-01
   2.95592155e-02  1.13133993e-03 -6.66720644e-02  1.45995449e-02
  -3.63274030e-02 -2.31888215e-03 -1.33455005e-02  4.74679805e-02
  -9.19563398e-02 -2.94066742e-02 -4.12093243e-03 -8.13057926e-03
  -4.82917503e-02 -9.55385491e-02 -6.30523860e-02  2.86098663e-02
  -3.67642343e-02  8.71331915e-02 -8.28086585e-02 -2.90958267e-02
   2.20367126e-02  5.77423163e-03  3.40282060e-02 -2.95209407e-04
   2.19365116e-02  2.09400803e-02 -3.48036811e-02 -6.97837025e-02
  -1.58286944e-01  4.12355326e-02 -7.61021301e-02 -1.27626061e-02
  -2.35136715e-03 -3.90666910e-03 -1.48245260e-01 -2.57877707e-02
   2.84729525e-02 -5.10651991e-03 -4.66856770e-02  2.37539578e-02]
 [-3.41862589e-02 -9.66284350e-02 -1.34262621e-01 -2.04126909e-02
  -1.23523250e-02  2.77845599e-02 -6.43640682e-02 -5.80419712e-02
   1.01908883e-02 -2.28415765e-02  3.10603920e-02 -1.85086206e-03
   5.20465970e-02  1.08338967e-02 -1.96035542e-02  1.41857825e-02
   3.18851843e-02  2.45218053e-02  1.32340580e-01  2.81699598e-02
   3.80906127e-02  4.69473228e-02  5.63196391e-02 -3.85684595e-02
   5.83099350e-02 -8.80938955e-03  1.48909435e-01  3.20877880e-02
   1.22925006e-01  3.08786705e-02 -1.76645070e-01 -8.08919966e-02
  -1.36838078e-01 -5.31494245e-03  3.38971168e-02 -1.93209257e-02
   6.02753498e-02  2.17737313e-02  2.90200617e-02  1.98569763e-02
  -4.73840721e-03 -4.62716408e-02  5.27163073e-02  4.10334468e-02
   2.23411545e-02  2.11823750e-02 -8.61807242e-02  4.79198480e-03
  -1.71753839e-02 -1.78389326e-02 -4.72427420e-02  3.37715298e-02
   1.79323971e-01 -9.21695121e-03 -4.30964530e-01 -2.04159357e-02
  -5.23009785e-02 -6.67625666e-02 -7.27734566e-02 -1.82573758e-02
   2.85436846e-02 -2.58650947e-02 -2.42128074e-02  8.81404504e-02
  -4.70372401e-02 -1.48014188e-01  2.95998007e-02 -7.17783049e-02
  -6.38112277e-02 -4.75403816e-02 -2.95629930e-02  1.17386878e-03
  -1.23869702e-01  2.21807316e-01  1.61279827e-01 -1.70912500e-02
   3.40827964e-02  7.09750131e-03  4.14138231e-05  3.75783816e-02
   6.79828450e-02 -8.30662102e-02 -1.87706221e-02 -3.34169120e-02
  -4.44345362e-02  4.88964058e-02 -1.61737483e-02 -5.83273806e-02
   1.73942409e-02  1.86965317e-02 -7.32209384e-02  4.29972932e-02
  -7.64509365e-02 -4.32995781e-02 -2.40336452e-03 -2.17506960e-02
  -2.79575232e-02  3.23979184e-02 -6.37989864e-02  4.06509526e-02
  -2.39505339e-03 -1.74907506e-01  9.70187504e-03  4.68083704e-03
   8.50836858e-02  1.28736913e-01 -1.56439215e-01 -2.33577192e-02
  -6.46278709e-02 -2.10585251e-01  2.39520837e-02 -2.67716907e-02
  -5.60479984e-02  2.59558763e-02 -5.34057915e-02  7.25718364e-02
   5.97945601e-03  1.73754737e-01 -5.96624985e-02  6.34068921e-02
   1.38027346e-04 -4.42686770e-03 -1.90007150e-01 -3.45292278e-02
  -1.18332002e-02  2.99378857e-02 -2.97693629e-02  1.24329131e-03]
 [ 3.53361741e-02 -4.38711466e-03  1.72092505e-02 -5.64958118e-02
  -5.06553277e-02 -6.61024302e-02 -5.80483079e-02 -7.26673380e-02
  -8.79564614e-04 -9.95936096e-02 -2.75948159e-02 -2.88275778e-02
   4.94795181e-02 -4.88193259e-02 -6.38801679e-02 -4.10576612e-02
   2.74967914e-03 -2.57250145e-02  1.05704799e-01  1.49128102e-02
   8.52200296e-03  9.45741590e-03  5.57331145e-02 -2.28969995e-02
   3.52465063e-02  4.54516858e-02 -7.05392100e-03 -5.77706173e-02
  -1.23999268e-01 -2.33669318e-02  2.86099594e-02 -1.42251030e-02
  -2.98877782e-03  1.09367007e-02 -4.97227311e-02 -7.22295865e-02
  -8.41441378e-02  4.46627513e-02  3.87985185e-02  1.39884581e-03
  -4.41565104e-02 -3.06035094e-02  5.19342013e-02 -5.43504730e-02
  -3.51503193e-02 -1.53081948e-02  6.96101785e-02 -2.50932276e-02
  -5.02438052e-05 -6.52849302e-02 -4.43030009e-03  2.69945934e-02
   5.42211048e-02  1.46680810e-02  1.32051334e-02  1.62455812e-01
   8.08299240e-03  9.77961048e-02  2.55795335e-03  4.81864922e-02
  -4.32918333e-02  2.68331263e-03 -4.39688712e-02  3.15147010e-03
  -3.14629078e-02 -2.78701246e-01  9.34265256e-02  2.76143644e-02
   3.43554169e-02  1.90196019e-02  8.36767198e-04 -7.89880678e-02
  -9.27912444e-02 -2.45507136e-02  9.09130871e-02  4.72796336e-02
   4.55341563e-02 -7.20748454e-02 -4.89679165e-02 -6.24903105e-03
   7.46805444e-02 -1.17962509e-01 -1.85348377e-01 -2.69324332e-02
  -5.47057502e-02 -1.79318897e-02  1.17216818e-02 -1.51777357e-01
  -4.49331254e-02 -2.27570981e-02 -7.54306698e-03 -5.06610516e-03
  -4.08661924e-02  6.81922510e-02 -5.81311919e-02  2.06243061e-02
   7.10281171e-03 -6.10531904e-02  1.61263987e-01  3.93803045e-02
  -6.21931516e-02 -6.42467067e-02  1.89799462e-02  2.95993220e-02
  -2.57831011e-02  1.60340339e-01  1.47021741e-01  9.10049155e-02
  -7.71820918e-02 -7.35066608e-02 -3.87250595e-02  2.29604095e-02
  -8.09432045e-02 -4.67112400e-02 -2.58731712e-02 -4.04262692e-02
  -1.99641362e-02  1.34920657e-01 -3.45861092e-02 -3.02197374e-02
  -7.49294832e-02 -5.22648431e-02  1.38552785e-02 -4.40093949e-02
  -1.77087896e-02  2.66334601e-02  6.85743839e-02 -8.13251641e-03]
 [-3.60859483e-02 -5.79604171e-02 -3.82874310e-02 -5.14759719e-02
   3.69391069e-02 -5.67118749e-02  4.71290313e-02 -6.29088143e-03
   2.97363382e-02  2.40835305e-02 -5.52946441e-02 -7.40935951e-02
  -7.36346319e-02 -6.17935471e-02 -6.60842210e-02  2.95197894e-03
   1.80355813e-02 -4.13728766e-02 -3.54166701e-02 -1.29788863e-02
  -5.12813516e-02 -7.08298981e-02 -6.56126253e-03 -1.04997836e-01
   4.30193730e-02 -3.16031054e-02 -3.15958261e-02 -5.03443182e-03
  -3.83041985e-02 -9.46556870e-03 -8.02381486e-02 -2.82017831e-02
  -2.47559547e-02  7.42187537e-03 -3.89264058e-03 -1.16699366e-02
  -9.60656814e-03  4.19884175e-02  2.87672915e-02  1.35750696e-02
  -7.08283335e-02  2.96292771e-02 -6.89770058e-02  2.88469084e-02
  -3.93955968e-02 -4.54077162e-02 -1.29945263e-01 -2.37653460e-02
  -3.07508893e-02 -4.86242026e-03 -8.05401951e-02  2.35591438e-02
   2.30597053e-02 -6.27598837e-02 -1.27070576e-01  5.77269383e-02
  -7.87252262e-02  1.28695607e-01 -8.26653559e-03  2.59705540e-02
  -5.68019673e-02 -1.09231407e-02 -2.27353461e-02  6.25504702e-02
   9.25701018e-03 -3.85429300e-02 -4.76386249e-02 -1.97263546e-02
  -2.92428806e-02 -1.51755987e-02  6.00900687e-03  3.06076240e-02
  -1.26980059e-02 -4.93377596e-02  3.03711519e-02  9.11826547e-03
  -4.78671677e-02  1.17572686e-02  5.39018847e-02  1.92210991e-02
   4.37216535e-02 -2.52883583e-02  4.25989516e-02 -1.99497752e-02
  -8.74954462e-03  3.45240831e-02  2.31920788e-03  5.97096048e-02
  -2.41678804e-02 -4.50482592e-02 -3.71393748e-02 -3.47503498e-02
  -1.50089776e-02 -3.17611173e-02  9.25176684e-03 -6.51618391e-02
   3.40348259e-02  1.32774105e-02 -1.88755672e-02 -6.66286349e-02
  -3.83914448e-02  6.44554421e-02 -4.60090581e-03  1.95441060e-02
   2.84055471e-02 -1.90612003e-02  3.21929716e-02 -8.49602148e-02
   4.70753340e-03 -1.43711036e-02  4.19529080e-02 -2.02844124e-02
  -6.08104058e-02 -4.25166823e-02 -4.01630700e-02 -3.39935124e-02
  -4.68947552e-03  5.09246662e-02 -6.18141368e-02 -1.04728438e-01
   1.92633010e-02 -1.34809138e-02  3.79964113e-02 -5.63539080e-02
  -4.17410024e-02 -7.05670640e-02  2.12995764e-02 -3.86269130e-02]
 [ 2.16979496e-02  6.85150560e-04 -2.80227959e-02 -4.50476855e-02
   1.56978909e-02  4.89280187e-02 -1.29508525e-02 -1.61214210e-02
  -6.81582242e-02  2.10239589e-02  5.45314774e-02  3.07309441e-03
  -6.98983371e-02 -4.62386059e-03  1.83414388e-03  3.76259573e-02
  -1.15060486e-01 -6.49458217e-03 -1.81138486e-01 -6.41110241e-02
  -5.62615208e-02 -6.64943783e-03 -6.87412173e-02 -6.22714534e-02
  -6.00654967e-02 -2.55791321e-02 -2.58205906e-02  3.80009934e-02
  -2.88843848e-02 -8.19506496e-02  4.58970629e-02 -9.10409316e-02
   7.78842643e-02  3.02671697e-02 -3.40782478e-02 -1.96843762e-02
   1.25424443e-02  2.04301961e-02 -2.59025767e-02 -2.56563853e-02
   2.14554463e-02 -1.63149387e-02 -2.18707267e-02 -9.85868368e-03
  -8.49989429e-03  1.08023882e-02 -1.83035135e-02 -5.82077019e-02
  -6.26604781e-02  2.63962448e-02 -4.34045009e-02 -1.17516527e-02
  -1.97336286e-01 -1.85945574e-02 -3.59086283e-02 -2.96621292e-04
  -3.43500413e-02 -2.63818298e-02  1.21089041e-01 -7.72185102e-02
   3.14733200e-02 -1.37804179e-02 -6.35648519e-03 -7.16349036e-02
   1.54053727e-02  8.01750049e-02 -1.44117149e-02 -3.93173136e-02
   8.37238878e-03 -1.00030698e-01 -2.06303447e-02 -5.23901880e-02
  -1.15003129e-02 -1.92194339e-02 -1.25241071e-01  2.97664292e-03
  -6.81610825e-03  1.40276738e-02 -2.72765514e-02  2.93918531e-02
  -4.02260274e-02 -1.92745030e-01 -2.50076782e-02 -2.32439544e-02
   2.03911532e-02 -3.07615343e-02 -3.07389051e-02  4.18338329e-02
   3.60198990e-02  2.11038999e-02 -6.40317574e-02 -1.14631047e-02
  -1.48555171e-02  4.86280844e-02  1.35989785e-02  2.08042376e-02
   1.10496148e-01 -7.81084523e-02 -2.10606217e-01  2.09357031e-02
   2.98102275e-02 -6.58228546e-02 -3.95528413e-02  5.13987988e-02
  -1.09205199e-02 -1.47645280e-01  6.28237799e-03 -9.28240418e-02
   1.77898519e-02 -1.32365867e-01  3.13086733e-02  3.32378782e-02
  -8.58167186e-03 -3.53429504e-02  3.96876074e-02 -1.06929615e-02
   2.51371358e-02  2.04564109e-02 -8.52209032e-02 -9.03859586e-02
  -3.70993316e-02  4.45693210e-02 -1.32926675e-02 -6.44398183e-02
   1.10037010e-02 -3.76855135e-02 -6.21796437e-02 -2.96670347e-02]
 [ 2.93566007e-03  2.45018601e-02  5.24298139e-02  3.15318257e-02
   4.64688614e-02  5.12491055e-02 -2.36261524e-02  2.39562076e-02
  -1.12727247e-02 -1.76868513e-02  6.07151426e-02 -2.88883243e-02
  -3.77516709e-02  9.13798809e-04  3.00786346e-02 -1.63010374e-01
   2.10428566e-01  2.73756348e-02 -1.23146046e-02  2.42269635e-02
  -1.82540026e-02  7.00257719e-03  3.32163274e-03 -3.41294929e-02
   1.35622978e-01 -1.73244793e-02  4.55884077e-02 -5.35079204e-02
  -1.00156926e-01 -1.85422432e-02  1.47787798e-02 -1.67441722e-02
   6.23798966e-02  3.90239581e-02 -1.54195502e-02  1.71191543e-02
   1.04435617e-02 -4.62170914e-02  7.37194493e-02 -1.83795281e-02
  -3.27801555e-02  5.96037433e-02 -2.19407678e-02 -2.06881352e-02
   1.68006569e-02  4.22953330e-02 -1.68764994e-01  6.42362703e-03
  -5.83641678e-02 -1.25011876e-02  2.29317546e-02 -9.24147516e-02
   1.17448851e-01  5.48183322e-02  1.64752722e-01 -1.30063131e-01
   2.80221682e-02 -7.52567872e-02  1.12106344e-02 -5.14411554e-03
  -2.64369734e-02  1.77234598e-02 -2.68008579e-02  1.45130083e-02
   4.56825942e-02 -1.14683799e-01  4.28124666e-02  1.50908813e-01
  -1.09843284e-01  2.00859969e-03 -1.81247406e-02  6.14775419e-02
  -6.34869635e-02  6.33179694e-02 -1.52054802e-01 -3.30045708e-02
   3.52091156e-02  2.05942225e-02 -4.63611409e-02  8.11345056e-02
  -9.43619609e-02  9.50432643e-02 -2.21336670e-02 -4.99174520e-02
   2.27191672e-03  5.76426312e-02  5.00131398e-02  1.29337952e-01
  -5.96046895e-02  2.24388111e-02  3.35447788e-02 -4.03284281e-02
  -7.84021392e-02 -9.16909520e-03 -1.51141817e-02  3.11335176e-02
  -2.27744192e-01  1.72141194e-02 -1.10948883e-01 -2.69288123e-02
   1.44485012e-02 -2.50918448e-01 -9.58636403e-03  2.68518031e-02
  -7.44351596e-02 -1.26057550e-01 -2.37089038e-01  7.87386522e-02
  -4.03240472e-02 -1.43465564e-01 -2.17250865e-02 -2.99085937e-02
  -5.74536473e-02 -5.95600419e-02 -4.80509549e-03  6.98805461e-03
   1.21923380e-01 -9.01989713e-02 -1.95577890e-02  6.65356591e-02
  -5.53882569e-02 -1.33938566e-02  5.23423739e-02  1.88868977e-02
  -7.92273693e-03  5.27956337e-03  3.08768377e-02  1.32098990e-02]
 [ 5.59338704e-02  2.72094849e-02 -1.81141142e-02  3.91427800e-02
   2.38342509e-02  2.35688803e-03 -1.62531137e-02 -1.06921168e-02
   1.23008946e-02 -1.99753121e-02  2.77887494e-03 -6.66400567e-02
  -6.44178167e-02 -1.14522846e-02  1.29170120e-02 -2.71669999e-02
  -9.45141986e-02 -1.00608967e-01 -1.40483165e-02 -7.93184415e-02
   3.47917303e-02 -4.38022614e-03  1.80104747e-02 -1.95650570e-03
  -4.04630229e-02 -2.45496072e-02 -5.11289835e-02 -7.56060006e-03
  -7.43260980e-02 -4.69879322e-02 -2.68426090e-02  3.12908702e-02
  -8.00736099e-02 -5.40655516e-02 -3.18531804e-02 -5.27325422e-02
  -1.93689689e-02 -5.37493043e-02 -5.54931872e-02 -3.85364555e-02
  -2.66133882e-02  2.62335222e-02 -2.17524525e-02 -2.53045205e-02
  -8.38504266e-03 -2.49783900e-02  4.59315032e-02  1.10778771e-02
  -2.04292941e-03 -5.53936511e-02 -5.01255170e-02 -1.42462784e-02
   5.42536937e-03  4.57851263e-03 -1.56965956e-01 -1.61431104e-01
   7.02484995e-02 -6.15876503e-02 -9.50883329e-02 -7.67657254e-03
  -3.02332491e-02  3.46290093e-04 -5.87415248e-02 -2.19342276e-03
  -4.04904038e-02 -2.01285586e-01  3.50689366e-02 -3.81224826e-02
  -4.09996994e-02 -5.37247956e-03  1.84802320e-02 -4.94511575e-02
  -1.31986022e-01  2.00331621e-02  9.51907188e-02 -5.61718829e-02
  -2.51106862e-02  2.63732802e-02 -7.47201405e-03 -7.42433965e-02
  -1.48237795e-01 -3.85253392e-02 -4.91159372e-02  4.78304364e-02
   5.29837329e-03 -6.53404742e-02 -2.76364703e-02 -8.99156034e-02
  -5.54680973e-02 -3.97502035e-02 -3.85133661e-02  4.62459475e-02
   3.98337841e-02 -3.69735062e-03 -5.75715676e-03 -5.85598052e-02
  -8.23356211e-02  1.31959496e-02  7.57498369e-02 -3.22242471e-04
   6.09880053e-02 -1.02635160e-01 -2.78123301e-02  1.27488095e-02
   1.81847147e-03  6.44984171e-02  1.99398566e-02  3.68499197e-02
  -5.84595390e-02 -2.70391814e-02 -6.63898736e-02 -2.64881663e-02
  -9.95686501e-02  1.47324968e-02 -2.90063452e-02 -4.33222950e-02
  -5.90462051e-02  7.11882040e-02  2.59568747e-02 -4.15209532e-02
  -3.40561233e-02  1.49798952e-02 -2.45411411e-01 -3.22720669e-02
  -2.55206600e-02  1.62700322e-02 -3.29179019e-02 -5.92737682e-02]
 [ 9.21428762e-03 -2.67337710e-02 -1.06954969e-01  7.21042603e-03
  -4.14897129e-03  3.72760892e-02 -2.87284441e-02  9.75234993e-03
  -5.69994226e-02  3.11067794e-04 -1.20158335e-02  9.08605754e-03
   5.12591898e-02 -3.17820311e-02  2.88030952e-02  2.30828337e-02
   2.42388230e-02  6.38142601e-02  5.57625294e-02 -2.95164827e-02
  -7.38285407e-02  3.11143473e-02 -4.10240516e-02 -2.43078824e-02
   7.44162947e-02  6.39483109e-02  5.54111488e-02  6.32143766e-03
   7.93536976e-02  4.27329913e-03 -1.14401914e-01 -7.19818547e-02
  -5.45520103e-03  8.36749654e-03 -9.04664397e-03 -3.68327238e-02
   3.41046527e-02 -7.30573246e-03  1.99432764e-02  2.06444785e-02
  -6.13404587e-02  7.87294656e-03 -2.77373996e-02  5.64650074e-02
  -4.54671308e-02 -5.69965644e-03  2.04458926e-02 -7.24565685e-02
   8.46159235e-02 -4.98314239e-02 -2.67476104e-02  4.88256998e-02
   1.57243703e-02 -1.62887834e-02 -3.45690459e-01 -1.36008963e-03
  -8.94548595e-02 -5.87206427e-03  3.52092832e-02 -4.19148207e-02
  -4.75980975e-02  1.38825206e-02  1.90665256e-02  1.25030130e-02
  -3.15932673e-03 -2.01006591e-01 -4.55340445e-02 -3.95917557e-02
  -1.44356275e-02 -8.02366808e-02  8.91380012e-03  3.59841734e-02
  -1.59304589e-01  1.95407838e-01  8.18342716e-02  3.16687003e-02
   4.72774915e-02  2.00703181e-02 -1.10602630e-02 -6.90612048e-02
   8.19995701e-02 -3.78355123e-02 -4.79134003e-04 -6.53595403e-02
  -2.90135145e-02 -4.05072607e-02 -1.14003439e-02 -3.54017690e-02
  -7.23713711e-02  4.59407307e-02  3.22183855e-02  3.49134952e-02
  -6.79138005e-02 -3.75068486e-02  1.69405937e-02 -5.89986555e-02
  -4.62916233e-02  4.33029681e-02  2.72001326e-02  5.93783520e-02
   1.67998821e-02 -1.93840206e-01 -1.39590008e-02  3.40283960e-02
   1.34439506e-02  8.80130902e-02 -9.89297125e-03 -1.18291125e-01
  -6.76535722e-03 -1.20829321e-01 -3.02120559e-02  2.53035054e-02
  -5.79569452e-02 -1.35052688e-02  2.76104491e-02 -1.46100447e-02
  -3.68592702e-03  9.17092264e-02 -4.26659081e-03 -1.46712270e-02
   4.50136662e-02  3.15256614e-07 -3.56720266e-04 -7.43748993e-02
  -6.02460802e-02 -4.16559875e-02  6.19792975e-02 -1.31692796e-03]
 [ 1.64175872e-02 -6.40783012e-02 -8.47562551e-02 -1.12340590e-02
   2.86380574e-02  1.42221600e-02 -9.24701616e-03  2.95424797e-02
   3.76163386e-02  6.34703562e-02 -2.00012829e-02 -1.63961966e-02
  -5.03165424e-02  4.80743684e-02  3.93122211e-02 -7.18601572e-04
  -1.05383299e-01 -1.47163253e-02  1.92955136e-02 -1.02597829e-02
   6.18223380e-03  2.25955131e-03  4.77658436e-02  5.85929789e-02
   9.01349932e-02 -3.74003313e-02 -9.09473225e-02  4.40334491e-02
  -6.95919767e-02  1.75570929e-03  2.43416596e-02 -2.75493581e-02
  -4.13947962e-02  5.22430688e-02 -2.80446131e-02  2.16765446e-03
  -4.42642905e-02 -8.27715639e-03  6.65087113e-03  3.05886194e-02
  -1.22490535e-02 -4.71579321e-02  1.45287812e-02 -5.17003685e-02
  -5.92292026e-02 -1.03152916e-02  1.20486006e-01  9.90468729e-03
  -5.96799627e-02 -1.99383106e-02  4.26404364e-02  2.71451231e-02
  -3.89910638e-02  1.92990173e-02 -9.97397117e-03 -6.53723106e-02
  -1.54863335e-02  4.52818833e-02 -1.13709308e-01 -6.37963265e-02
   3.84324715e-02  6.66166702e-03  6.18059337e-02 -1.58766787e-02
  -1.11285495e-02 -1.21030062e-01 -1.39381900e-01  7.13275047e-03
   5.30397967e-02 -1.06831295e-02  4.57314104e-02  6.36353865e-02
  -2.53394574e-01  3.27696018e-02 -1.73520353e-02  4.95004207e-02
  -2.22487003e-02 -5.41618280e-02 -7.22020119e-03  1.02879561e-01
   1.98977645e-02 -2.56412830e-02 -1.46833912e-01  4.80367988e-02
   3.71923782e-02 -5.40913045e-02 -5.37943356e-02 -8.97708163e-02
   8.73246975e-03  7.43805198e-04  1.87514219e-02 -2.40307692e-02
   3.29992026e-02  1.73427537e-02  3.31994309e-03 -4.32748422e-02
  -5.97643889e-02  4.00670841e-02  1.75175235e-01 -6.23177737e-02
   2.62391325e-02 -3.83196957e-02  1.89101126e-03  3.04653328e-02
   1.62709504e-02  7.50328973e-02  1.09237634e-01  1.00202464e-01
  -6.93094581e-02  1.25807703e-01 -4.78384905e-02  3.67998704e-02
  -2.82259453e-02 -6.85414625e-03 -5.34741506e-02 -3.45036127e-02
  -8.48066285e-02  9.31534618e-02 -2.57443059e-02 -5.51133975e-02
  -4.04663160e-02  1.91393476e-02 -1.30709827e-01 -3.15685058e-03
  -2.13875691e-03 -5.14718099e-03 -2.11189725e-02  2.68598665e-02]
 [ 3.94642875e-02 -7.09038451e-02 -6.47159070e-02  3.75279710e-02
  -3.31995590e-03 -5.66524938e-02 -2.54026670e-02 -1.63692201e-03
   1.23425247e-02 -2.17832308e-02  4.29793485e-02 -7.25930929e-02
   9.04934853e-03  3.15027125e-02 -7.32213557e-02 -2.99365772e-03
  -4.51210625e-02 -6.72746748e-02 -7.00616911e-02 -7.36001134e-02
   5.00559956e-02  3.39657366e-02  1.63999572e-02  1.75299719e-02
   6.21752180e-02 -4.83975597e-02 -1.01823412e-01 -4.93767262e-02
   3.49010974e-02 -1.29629280e-02  3.35625261e-02  9.92503716e-04
  -5.53742722e-02 -1.08512575e-02 -3.41476314e-02 -2.70931050e-02
   8.90688971e-02  4.37529348e-02  3.21607850e-02 -6.52453676e-02
  -4.38322723e-02  3.57390903e-02  2.75007561e-02 -4.44552414e-02
   2.64426749e-02  4.28307094e-02 -3.22339758e-02 -1.86898801e-02
  -8.48960429e-02  3.02927382e-03 -6.79503679e-02 -5.98766990e-02
   5.74254878e-02 -6.23402335e-02 -4.08210792e-02  9.79785156e-03
  -9.43583325e-02 -1.01428824e-02  2.23371685e-02  3.96225825e-02
  -7.15026632e-03 -4.99720946e-02  1.96276363e-02 -1.57209374e-02
   1.46683808e-02 -5.55989556e-02 -6.59129098e-02  2.33298447e-02
   7.96619616e-03 -5.58402613e-02 -1.95760988e-02  7.01184496e-02
   1.83633482e-03 -2.02055871e-02  5.60248606e-02 -5.41978702e-02
  -5.03718182e-02 -8.91860481e-03 -4.95716780e-02  6.48397058e-02
   8.03998783e-02 -3.16165760e-03  2.60993518e-04  9.81337018e-03
   4.10591904e-03 -6.74150884e-02 -6.28064945e-02 -6.08584844e-04
   4.11378518e-02  2.77872011e-02  1.76943690e-02  4.78274338e-02
  -2.07318664e-02  1.08783774e-01  2.97248010e-02  2.08859332e-02
   2.58583743e-02 -7.25309551e-02  2.69645229e-02 -6.19469546e-02
  -2.91222334e-02  4.69002612e-02 -5.55870309e-02 -3.40813845e-02
  -7.61830136e-02 -7.06697479e-02 -2.09591724e-02 -7.62862489e-02
  -2.46857740e-02  5.34499697e-02 -3.74545306e-02 -5.96091114e-02
   9.01337189e-05 -6.33555278e-02 -6.10839017e-02 -8.60120282e-02
   4.16976623e-02 -5.00042066e-02  3.40280379e-03  4.47152518e-02
   4.64347862e-02 -4.76148985e-02  2.30057947e-02  1.12131089e-02
  -3.26974839e-02 -9.66159329e-02 -1.78360529e-02  4.65936773e-02]
 [-3.33362781e-02  2.63378322e-02 -4.29384671e-02  1.68701576e-03
   3.44078504e-02 -1.39710931e-02  4.89851348e-02 -4.21522884e-03
   1.99866053e-02 -1.53451320e-02 -4.03033458e-02 -2.02338360e-02
  -3.60877216e-02 -5.40238470e-02 -4.83872518e-02 -5.39748333e-02
  -8.45319703e-02  1.84048954e-02 -3.19594920e-01  4.36544791e-02
   2.83078272e-02 -1.72158536e-02 -6.72035501e-04  3.89042906e-02
  -1.38974860e-01  3.59387249e-02  6.52412474e-02 -3.18305492e-02
   2.28153672e-02 -1.01911969e-01 -1.32362114e-03 -1.31913712e-02
   2.22725160e-02  2.76512969e-02 -3.99837494e-02  4.59803827e-02
  -3.33869159e-02 -1.83663715e-03  1.91870052e-02  6.15740642e-02
   6.47933781e-02 -1.66785717e-02  1.78407170e-02 -6.37323782e-02
  -3.50563154e-02 -5.25871553e-02 -2.70870049e-03 -6.81112148e-03
  -2.08527353e-02 -2.25923192e-02 -5.06703816e-02 -8.06773528e-02
  -4.55157794e-02 -7.69053623e-02 -9.87190232e-02  5.84867373e-02
  -4.60879095e-02 -1.62298195e-02  7.66633824e-02  3.60588543e-02
  -6.16168743e-03 -1.90977622e-02  1.05801597e-02 -7.53724501e-02
  -1.38606492e-03  6.83089271e-02  7.74090691e-03 -6.99647935e-03
   1.06248923e-03 -2.30228584e-02  1.08252270e-02 -6.59356117e-02
   5.29903453e-03  3.77490558e-02 -7.15037957e-02  1.04136379e-04
   1.94161255e-02 -4.58749607e-02 -6.57988414e-02 -8.32001269e-02
   5.15742451e-02 -9.74301398e-02 -7.44635388e-02 -2.80208979e-02
  -5.81569858e-02  4.32804413e-02 -3.70411091e-02 -3.55393700e-02
  -5.58945676e-03 -1.69883072e-02 -5.52580468e-02  1.45889325e-02
   1.25609878e-02 -4.52797636e-02  6.71114819e-03  4.60688695e-02
   7.16782212e-02 -6.38073459e-02 -2.13142231e-01 -3.42272669e-02
   3.61913294e-02  2.99079753e-02 -3.80613022e-02  1.35137560e-02
   7.73561327e-03 -1.43224791e-01  3.87738235e-02 -9.77259725e-02
   5.92294289e-03 -9.87849534e-02  1.07767256e-02 -1.75032187e-02
   4.99893464e-02 -4.52478565e-02  6.32053148e-03  3.49026471e-02
   4.48639505e-02 -5.44129461e-02 -1.15746092e-02 -1.85796805e-02
  -6.71548247e-02 -2.65680328e-02  6.64336467e-03  2.48756614e-02
   1.75285935e-02 -2.54790746e-02 -1.44193706e-03 -3.67551818e-02]
 [ 2.93420888e-02  9.01765525e-02  4.82178992e-03 -1.19720474e-02
  -4.44074757e-02  3.42599712e-02  3.27774021e-03  6.87487796e-02
   5.49448952e-02 -2.89680972e-03  3.07449736e-02  1.08342990e-02
  -1.93596296e-02 -1.42095983e-02 -1.87385604e-02 -1.10857584e-01
   2.20653161e-01 -1.17319811e-03  3.81801128e-02 -1.66505165e-02
   2.10301653e-02  3.87981981e-02  5.21687642e-02 -2.68342122e-02
   5.73440567e-02 -4.32041548e-02  5.46932966e-03 -1.40585750e-02
  -1.04431987e-01  5.04642911e-03  5.81660122e-02 -4.43802401e-02
  -8.20040554e-02  4.45270911e-02  9.41094011e-03  6.15677573e-02
  -8.78961682e-02 -5.04867062e-02  6.48790523e-02 -1.17391199e-02
   3.45181152e-02 -5.47670759e-02  2.47206464e-02 -1.50713138e-02
   5.93332201e-02 -5.00268750e-02 -1.63561776e-01 -4.77335453e-02
   3.62192690e-02 -5.81016503e-02  1.18676946e-02  4.69935685e-02
   7.55487680e-02  3.00685093e-02  7.65332356e-02 -1.77150173e-03
  -5.14875278e-02 -1.16816424e-02  8.98554176e-02  4.68166545e-02
   1.93875432e-02 -3.32995057e-02  1.44936144e-02  9.31580830e-03
  -2.26135403e-02 -1.38732150e-01  2.59426236e-03  1.74088433e-01
  -4.50871661e-02 -3.91334221e-02 -3.55306379e-02 -8.48816335e-03
  -3.14844809e-02  1.22648768e-01  8.39614682e-03 -5.73721640e-02
  -1.15404641e-02  6.20553568e-02  4.62579820e-03  1.53620049e-01
  -1.52584296e-02 -5.47301285e-02 -6.24858439e-02  3.98312360e-02
   3.48191820e-02  9.98283178e-03 -3.65473777e-02  5.35015240e-02
   2.01488454e-02 -1.81185566e-02 -1.78821813e-02  1.62445009e-02
   2.27537584e-02 -1.13185555e-01  4.95032407e-04 -2.37836204e-02
  -2.63447892e-02  4.27570194e-03  2.75686216e-02 -7.26842880e-02
   1.69548392e-03 -2.69912481e-01  1.51031092e-02  1.52065456e-02
   1.11395568e-02 -1.72622662e-04 -7.28743076e-02  5.66099137e-02
   1.58203032e-03 -9.03074592e-02  6.29554540e-02 -4.20169383e-02
  -7.12841675e-02  1.09722826e-03 -2.84620449e-02 -3.40742655e-02
   1.79938078e-01  1.67879704e-02 -6.68043420e-02 -1.99735891e-02
   8.49185884e-03  9.22612846e-03  5.60565677e-04  2.88275965e-02
  -6.57494515e-02 -3.94009426e-02  7.32427835e-03 -5.53759336e-02]
 [ 6.87726587e-02  1.09138191e-02  3.77682112e-02  1.94647480e-02
  -4.73402776e-02 -1.83758028e-02  4.49133739e-02 -5.13911732e-02
   6.32520579e-03 -1.31549835e-02  2.42864620e-02 -5.08637726e-03
  -2.53507402e-02 -6.42067790e-02  5.73938787e-02  3.73246707e-02
  -3.23695987e-02 -1.49573460e-02  2.41376143e-02  2.01756023e-02
   2.39148606e-02 -4.43283562e-03 -7.23322108e-03 -3.70755345e-02
  -9.54779759e-02  5.01245260e-02 -6.17704615e-02  9.12039727e-03
   3.13427299e-02 -6.63213655e-02 -7.99087286e-02  3.27923521e-02
  -2.63180165e-03  3.79339233e-02 -7.57429982e-03  5.88254891e-02
   8.65100473e-02 -3.64781804e-02 -6.39414638e-02  2.85897087e-02
  -5.66146858e-02 -3.89575511e-02  2.93168109e-02  3.42733553e-03
   3.01641431e-02 -5.22390120e-02  4.14621308e-02 -4.02481742e-02
   4.94335294e-02 -1.58090182e-02 -4.83152084e-02  6.09531812e-02
   2.22070124e-02 -8.16560537e-03 -1.37293816e-01 -1.26338482e-01
   7.21077621e-02 -7.70807192e-02 -1.25926975e-02  3.81949544e-02
  -3.61489831e-03  2.90993359e-02 -3.19268298e-03 -3.64753008e-02
  -9.30556562e-05 -2.07143739e-01 -3.82357761e-02 -1.33524582e-01
  -2.29524896e-02 -6.88311039e-03 -6.37458190e-02  3.40560712e-02
  -1.46478713e-01  2.33416036e-02  9.39047113e-02  1.31727299e-02
  -5.17924502e-02  1.22964242e-02  4.95337732e-02 -1.50373906e-01
  -1.38824210e-01 -9.16201621e-02 -6.68213964e-02 -1.22678829e-02
  -3.62112708e-02 -3.03162057e-02  1.93775389e-02  2.02182010e-02
  -4.80334200e-02  5.89170530e-02 -2.74997689e-02 -2.16003554e-03
   2.43586395e-02  6.02362752e-02 -5.66195473e-02 -1.21719874e-02
  -6.08086064e-02 -5.79962917e-02 -2.30163857e-02  3.80883971e-03
   4.31454480e-02 -7.58926123e-02  4.81106117e-02 -6.34747744e-02
  -1.11268610e-01  2.73013152e-02 -5.24456948e-02  4.51245941e-02
   3.63834687e-02  9.07067135e-02  4.23825048e-02 -8.03035591e-03
  -9.71916411e-03 -5.62438369e-02 -5.31821474e-02 -2.17129905e-02
  -7.96875823e-03 -4.05687792e-03  6.10617325e-02  5.67121655e-02
  -2.75147036e-02  6.86931051e-03 -3.03167194e-01  2.19173376e-02
  -8.09979439e-02 -1.05525963e-02  5.35772182e-02 -2.39160452e-02]
 [-4.04471643e-02 -4.19356562e-02 -3.58882584e-02  4.35160547e-02
   2.61532590e-02 -2.37133130e-02  2.71227174e-02 -4.46358547e-02
   1.85951050e-02 -1.89456381e-02 -4.04986665e-02 -5.64786084e-02
   1.65199190e-02 -2.41051987e-02  5.11421636e-02 -7.21133426e-02
  -9.93587822e-02 -7.87522420e-02  1.16919868e-01 -5.73307276e-03
   4.29521315e-02 -2.61239670e-02  7.24843889e-03 -1.33368066e-02
   1.46485940e-01 -2.83029210e-02 -5.72402887e-02  2.58168001e-02
   3.27121541e-02 -8.81102532e-02 -5.09411767e-02 -1.66999828e-02
  -2.50778627e-02  1.49872638e-02  5.73111624e-02  3.04423850e-02
  -4.28222539e-03 -4.01485264e-02  5.77351488e-02  2.91924085e-02
  -3.74185815e-02 -8.69866312e-02  5.78734428e-02 -4.52109352e-02
   4.82966751e-03 -1.05229467e-01 -9.20374542e-02  9.91685875e-03
   3.20174135e-02  2.66023502e-02 -4.01630849e-02  4.39921021e-02
   4.44064289e-02  9.38164070e-02 -2.46615678e-01 -3.42277177e-02
  -6.19966583e-03 -2.54637785e-02  4.21790667e-02  5.38946763e-02
  -2.66878139e-02 -1.97365843e-02  1.50730917e-02  4.82111201e-02
  -2.76168827e-02 -1.64582804e-01 -2.60375571e-02 -2.57217493e-02
  -7.93349668e-02 -5.84478043e-02  2.43610069e-02  2.97405776e-02
  -1.38443455e-01  2.33443771e-02  4.44692858e-02 -4.34431657e-02
   6.71429709e-02 -9.69283935e-03 -9.62717012e-02  6.02515414e-02
   7.69312754e-02  3.46502215e-02 -4.40537035e-02  9.42403078e-03
  -3.39683555e-02  4.89195511e-02 -6.65747300e-02 -6.20725863e-02
  -1.95289496e-02  4.81532514e-02 -7.74871930e-03 -5.25472052e-02
  -7.69391507e-02 -8.31264108e-02 -2.15061009e-03 -3.34791616e-02
   7.01792771e-03  5.16800359e-02 -4.91420366e-02  5.68110086e-02
  -3.27195972e-02 -2.59576850e-02 -6.80153631e-03  1.90291367e-02
  -2.07169680e-03  6.07358180e-02 -1.37563184e-01 -8.25590566e-02
  -4.54646684e-02 -8.18082467e-02 -3.49525884e-02  5.47142066e-02
  -5.10076769e-02 -2.33427640e-02  3.61651070e-02  2.30320133e-02
   5.35475612e-02 -3.44421342e-02  1.00650862e-02 -2.77244840e-02
  -2.65232800e-03 -7.83464089e-02 -1.69493090e-02  1.17063001e-02
  -5.34559637e-02  3.44236568e-02 -8.34440906e-03 -1.04133354e-03]
 [ 4.08279262e-02 -9.63930693e-03  1.40878707e-02  1.20225013e-03
  -1.38889970e-02 -1.46432053e-02 -2.96860412e-02  3.83462273e-02
  -9.09419730e-02 -3.14015485e-02  5.54194441e-03  4.01220992e-02
  -4.71048765e-02  4.31664921e-02  2.31822152e-02  5.96586242e-02
   6.27759919e-02 -1.23172794e-02 -2.75415592e-02 -5.63201169e-03
   3.58481407e-02 -1.41372206e-02 -2.13436484e-02  2.18183100e-02
   1.08353771e-01 -1.13902157e-02  6.76563233e-02 -1.64811369e-02
  -7.70074800e-02 -5.36973514e-02 -1.70522265e-03 -6.47124350e-02
  -1.30778313e-01 -1.96363647e-02 -2.04006787e-02 -1.42026115e-02
  -4.57954481e-02  3.57223600e-02 -8.19148421e-02  1.19519280e-02
  -2.74778577e-03 -6.42979667e-02  6.65685628e-03  1.16400374e-02
  -3.75624746e-03 -1.36036088e-03  1.00406744e-01  2.86692791e-02
  -1.38570629e-02 -4.45667170e-02 -4.68133613e-02 -5.39832897e-02
   7.31472224e-02  1.77673588e-04 -1.80682927e-01  8.12899396e-02
   3.03158611e-02  4.78842184e-02 -6.71201348e-02  5.29421377e-04
   3.64165530e-02 -4.32225689e-02 -3.43676694e-02 -4.74806204e-02
   2.96359626e-03 -1.14477091e-01  2.72633471e-02 -3.39826308e-02
   1.12840049e-01  2.20087729e-03 -2.55396264e-03  3.08842156e-02
  -8.94167796e-02  1.65994596e-02  2.10968312e-02  2.95838304e-02
  -4.80460525e-02 -5.76904342e-02 -1.12835746e-02 -1.87563349e-03
  -7.40689114e-02 -4.98416983e-02 -2.25639403e-01 -5.35935275e-02
   4.97588888e-02 -3.61662991e-02 -4.65429798e-02  1.65904239e-02
  -3.68543677e-02  4.30992618e-02  1.57634858e-02  3.12738903e-02
  -8.19737185e-03  2.88839377e-02 -4.66390280e-03  1.22694047e-02
   2.00416520e-02  4.07418981e-02  2.91843638e-02 -4.78478409e-02
  -4.83935885e-02 -7.71475956e-02  3.95307504e-02  1.75788701e-02
   3.78750972e-02  9.42142382e-02  1.83120579e-01  1.08422957e-01
  -1.88016221e-02 -1.27884075e-01 -4.29863408e-02  4.67245542e-02
  -5.75429909e-02  5.01122884e-02 -9.23505351e-02 -2.53846832e-02
  -6.28077760e-02  1.72580704e-01 -9.68855917e-02 -2.08833534e-02
  -3.09503209e-02 -6.14578202e-02 -1.20222673e-01 -5.33922762e-02
  -6.00828938e-02 -2.44343672e-02 -4.85431589e-02  2.17754785e-02]
 [-1.41206256e-03  4.95773479e-02 -1.02336079e-01 -3.51285120e-03
   3.37238573e-02 -5.53822629e-02 -3.16253155e-02  6.15461320e-02
  -9.04690623e-02 -7.52862543e-02  1.51174245e-02 -4.41103838e-02
  -4.17140760e-02 -4.71097641e-02 -1.64260026e-02 -6.38496727e-02
  -2.04112288e-03  2.71013100e-02 -5.13221771e-02  2.93817520e-02
   2.01535877e-02 -3.08638662e-02 -7.88926706e-02 -8.58175084e-02
  -3.53698917e-02 -5.08055240e-02  2.20346283e-02 -5.88008948e-02
  -4.77585290e-03 -8.32482576e-02  2.45455317e-02 -4.33050059e-02
   1.05959229e-01 -4.95145321e-02  2.85080839e-02 -2.37139408e-03
   6.68176562e-02  4.40757722e-02 -8.64834264e-02  1.21506797e-02
   3.88321206e-02 -3.03196218e-02 -1.40633602e-02 -6.54657260e-02
   2.23811008e-02 -3.92041020e-02  2.05449834e-02  2.89204232e-02
   5.39246621e-03 -3.76081467e-02 -2.40453072e-02 -9.89396870e-02
   4.07456532e-02 -6.23925179e-02 -6.18343391e-02  1.20964415e-01
  -8.20176024e-03  7.09066866e-03  7.12877065e-02 -4.85556535e-02
  -4.99655120e-02 -1.65766515e-02 -3.75931710e-02  2.26711761e-02
  -4.81821969e-02  1.00811962e-02 -2.14154311e-02  1.47627015e-02
  -7.39445463e-02 -4.68869247e-02  8.05346994e-04  2.45243087e-02
   1.30787455e-02 -6.89534983e-03  1.15847968e-01 -5.05811796e-02
  -4.09476198e-02  9.72528942e-03 -4.36920375e-02  1.68192033e-02
   1.18328156e-02  8.32297578e-02 -3.52527201e-02 -1.68368816e-02
  -5.95512800e-02  3.45254913e-02 -5.08301705e-02  6.69527659e-03
   2.36162003e-02 -3.76396673e-03 -1.72275789e-02  3.63600142e-02
  -4.91038784e-02  4.45416346e-02 -3.45513262e-02  4.11899276e-02
   5.38933761e-02 -6.66548684e-02 -7.87320137e-02  2.05287039e-02
  -6.94248304e-02  5.99206500e-02  1.22590130e-02 -2.13302001e-02
  -3.95259261e-03  6.73492998e-02  6.34042844e-02 -4.13779542e-02
  -5.72196767e-02  4.66268249e-02 -6.62272573e-02  5.11358434e-04
  -4.15356923e-03 -2.32762136e-02 -4.95574027e-02 -1.02257309e-02
   1.20417103e-01 -6.26737773e-02 -6.57982677e-02 -4.11417615e-03
  -4.13181633e-02  5.82943205e-03 -1.20770141e-01 -5.27319126e-02
  -6.04633847e-03 -7.93146864e-02 -7.46274507e-03  3.66947353e-02]
 [-2.62073819e-02  1.33078163e-02 -6.59627616e-02 -4.66142632e-02
  -1.97989382e-02  1.21969664e-02  4.39824909e-02 -3.06696370e-02
  -9.82461218e-03 -4.30087699e-03  4.54683900e-02 -5.33731431e-02
  -4.17094241e-04 -7.99544342e-03 -4.48410073e-03  1.90285582e-03
  -2.84574088e-02 -1.63551774e-02 -2.48641461e-01  4.00891751e-02
  -5.96245937e-02 -5.21183275e-02  8.57471023e-03 -5.52264750e-02
  -6.20203018e-02  3.37288529e-02  4.39502038e-02 -4.70861830e-02
  -2.36996356e-02 -4.95171398e-02  4.80697164e-03 -7.25335302e-03
   2.82301679e-02 -5.46176098e-02 -6.28762543e-02  2.65245661e-02
   2.50906255e-02  1.09682204e-02  8.49253684e-03  7.75795011e-03
   1.89030208e-02  2.63793394e-03 -5.13417609e-02  2.67788228e-02
  -1.66013483e-02 -4.30356525e-02  6.59584627e-02 -5.14332168e-02
  -5.77771403e-02 -4.62320223e-02  8.81373696e-03 -4.43377383e-02
  -1.96522791e-02  4.28051539e-02 -3.11903134e-02  2.28993017e-02
  -6.93658143e-02  7.16882944e-02  3.14827450e-02 -4.85399142e-02
  -3.60220075e-02  1.30205080e-02 -4.35461737e-02  2.06845459e-02
   3.99393216e-02  8.41824058e-03  2.49044150e-02 -8.30083042e-02
  -3.40044089e-02 -1.26651151e-03 -7.65597969e-02  7.34750007e-04
  -2.42659189e-02 -5.26539534e-02  3.51130851e-02  3.74960303e-02
  -1.52959581e-02  1.56943109e-02 -1.26517611e-02 -1.93894226e-02
  -1.57260790e-03 -7.40725249e-02 -2.44600214e-02 -1.03196740e-01
  -4.38437611e-02  4.27004807e-02  1.89309996e-02  2.65187826e-02
  -4.73147295e-02 -6.79499889e-03 -6.53715665e-03  1.29195740e-02
  -1.83572359e-02 -3.34854275e-02  4.90439534e-02 -1.82948951e-02
  -1.36189181e-02  9.08907223e-03 -1.68340191e-01 -5.77448346e-02
  -2.14690324e-02 -3.79946269e-02 -2.61009508e-03  1.01982756e-03
  -6.12754188e-02 -8.62339586e-02  4.87865098e-02 -7.19095916e-02
  -5.49307950e-02 -2.75610425e-02 -4.21663886e-03  4.98459907e-03
  -5.42551726e-02 -1.69168375e-02 -6.85165673e-02 -3.81104127e-02
   2.33070482e-03  8.19366798e-02 -3.56314629e-02 -5.48607856e-02
  -3.26132728e-03 -5.72053716e-02  2.34174244e-02  8.90361052e-03
   4.94109318e-02  4.27249670e-02 -5.97711243e-02  4.16304655e-02]
 [-3.18012349e-02  8.88626203e-02 -3.23239644e-03 -1.97386593e-02
   5.14303148e-03  5.30192815e-02 -5.02972268e-02  1.24897331e-03
   7.17733502e-02  1.91573948e-02 -2.38515325e-02 -3.30308825e-02
   3.87407467e-02  1.27751529e-02 -2.61087194e-02 -9.81291682e-02
   1.92738429e-01 -1.42364986e-02  2.50181966e-02 -5.39708883e-03
  -1.26448069e-02  4.69871238e-02  4.67368662e-02 -4.33647633e-02
  -3.37496810e-02 -7.34211579e-02  2.98679601e-02  1.81027502e-03
  -1.40090600e-01 -2.57796235e-02 -1.00024439e-01 -3.79762650e-02
   2.99486462e-02  1.62139535e-03 -2.50095800e-02 -4.63830978e-02
  -1.83593610e-03 -2.20629275e-02  1.42583311e-01  3.01269628e-02
   2.14780495e-02 -1.10378191e-02  2.23446749e-02 -2.78798789e-02
   1.33888572e-02 -5.50768003e-02 -1.53866187e-01  1.74662620e-02
   1.95399625e-03 -2.85704695e-02 -7.32979923e-03 -6.64147809e-02
   1.19408138e-01 -4.00826521e-02  3.66125822e-01  9.67037827e-02
   6.04121499e-02  1.20557658e-01  6.56072646e-02  5.36071211e-02
  -4.54287678e-02 -1.39055643e-02 -7.18862414e-02  3.45431687e-03
   5.61737008e-02 -3.30433249e-02  3.92921641e-03 -3.55614461e-02
  -2.11751293e-02  5.02280965e-02  3.10162622e-02 -3.38216238e-02
   1.93212535e-02 -3.22038978e-02 -4.40038070e-02  3.82915288e-02
   2.63819993e-02  5.24097532e-02  2.59947553e-02  4.61299270e-02
   3.22930589e-02  1.08841717e-01  1.02517614e-02  4.78183106e-02
  -2.43714824e-02  5.67809343e-02  2.81250253e-02  2.28076026e-01
   3.54847088e-02 -4.08632383e-02 -2.58992705e-02 -1.94049105e-02
   7.18902610e-03 -1.14418693e-01 -3.33020389e-02 -1.33535527e-02
   5.08515071e-03 -4.40338403e-02  8.77417028e-02  1.00472011e-03
   5.97025119e-02 -1.86573118e-01  3.03859413e-02 -1.70084909e-02
   1.02322185e-02 -1.84405930e-02 -1.67644564e-02  4.22040671e-02
  -3.59297507e-02 -2.67833434e-02  2.39327569e-02  2.87114419e-02
  -1.25133365e-01 -3.32935490e-02 -2.40515489e-02 -5.21815494e-02
   2.13435352e-01  1.08468048e-01 -1.01598188e-01  2.30434202e-02
   1.38254836e-02 -2.26051509e-02 -7.26193041e-02  5.30660246e-03
  -4.75158803e-02 -1.26678869e-03  6.20991364e-03 -3.94085161e-02]
 [ 5.22385873e-02 -4.78385389e-02  3.97082902e-02 -2.77745798e-02
  -1.83465518e-02  4.50101710e-04 -2.34363787e-02 -6.13283515e-02
   3.98569889e-02 -4.44323309e-02 -6.30331337e-02  1.80364843e-03
   3.74230482e-02  3.67041603e-02  9.12062824e-03 -8.72667134e-02
  -2.22632214e-02  1.69061758e-02  6.34470284e-02 -2.41284538e-02
   2.40847934e-02 -4.50160296e-04  1.61883682e-02 -5.62883094e-02
   8.71453155e-03  2.05030735e-03 -8.07476789e-02  1.03910435e-02
   7.02477172e-02 -2.77958848e-02 -6.11352883e-02  5.78818470e-02
  -3.38781774e-02 -2.67016757e-02  2.75171045e-02 -4.05770540e-02
  -2.24410817e-02 -3.71696539e-02 -7.17230737e-02  2.15561297e-02
  -8.17475840e-02 -1.98138840e-02  1.63711086e-02  4.13182080e-02
   3.06422487e-02  3.08711715e-02  8.92159715e-02  1.04175396e-02
   4.78258394e-02 -8.59794952e-03 -6.64118305e-02  4.78959084e-02
   6.78663105e-02 -2.91375145e-02  4.89882380e-02 -1.58066884e-01
  -1.36152226e-02  3.28855328e-02  2.77012642e-02 -9.19075392e-04
  -5.76196425e-02  3.59376483e-02 -4.56190109e-02 -2.25438997e-02
   2.52883472e-02 -2.82891542e-01 -7.67453015e-02 -8.62553716e-02
  -9.07454342e-02 -9.12916064e-02 -3.26642133e-02  9.58419684e-03
  -1.40450314e-01 -7.13364221e-03  1.46032453e-01 -6.50674850e-02
   5.08740917e-02 -1.86180305e-02  2.89013144e-02 -1.52596682e-01
   1.91109888e-02  1.51522858e-02 -8.40588212e-02 -5.04057035e-02
   1.84979569e-03  3.95200998e-02 -3.48680187e-03  1.32255200e-02
   2.48445384e-02  3.84211615e-02  2.33810022e-02 -3.52786854e-02
   1.71933398e-02 -4.61120764e-03  2.94611994e-02  4.83110659e-02
  -4.42213826e-02 -2.47945655e-02 -1.35672772e-02  5.76860234e-02
  -1.38099389e-02 -7.23156780e-02 -4.45674285e-02  1.40314875e-02
   2.28440296e-02  8.81531984e-02 -3.93202826e-02  9.02632624e-03
  -4.60420623e-02  5.56019582e-02 -1.75393559e-03  2.92501338e-02
  -8.51945207e-02 -3.03626899e-02 -9.11818743e-02  2.77816714e-03
  -7.68470624e-03 -1.34441881e-02  1.11232541e-04  3.79564688e-02
   9.18790605e-03 -2.95343250e-02 -1.24149233e-01  2.11291630e-02
  -9.77414250e-02 -3.92040722e-02  3.51758711e-02 -2.66039837e-02]
 [ 8.32059421e-03 -5.17698042e-02  7.76643073e-03  2.82560731e-03
  -5.91666289e-02  6.16283789e-02 -1.54859815e-02 -3.78273949e-02
   7.78994039e-02  5.77846318e-02  4.25261632e-02 -5.13737760e-02
   5.43956943e-02 -6.00405410e-02  2.48132721e-02 -6.94441274e-02
   3.69850197e-04  3.20440792e-02  2.15970688e-02  1.28747225e-02
  -4.87497635e-02  5.89350015e-02 -4.03669775e-02 -5.23765665e-03
   1.24758504e-01 -7.64062675e-03  5.00152968e-02 -4.28869724e-02
  -4.89071496e-02 -2.25432348e-02  2.14835107e-02  9.90334083e-05
   2.30709035e-02  4.95765507e-02 -3.42474133e-02 -7.96473771e-02
  -6.08847886e-02 -5.55251278e-02 -1.88132860e-02  6.73640892e-02
  -2.82668276e-03 -5.19688167e-02 -6.94947839e-02 -3.37733552e-02
   3.22266072e-02 -2.59263888e-02  1.08755998e-01 -1.83880911e-04
   4.23519909e-02  3.01239062e-02 -5.08391485e-03  7.13702813e-02
   4.38959114e-02 -2.03748681e-02 -1.77093342e-01 -5.60112856e-02
  -3.85263786e-02 -1.39014810e-01 -1.98135935e-02  5.02191782e-02
   3.56914476e-02 -2.82324106e-02 -1.15693053e-02  9.28002447e-02
   2.09883600e-02 -1.55269533e-01 -2.82523800e-02  6.17720708e-02
   1.27979159e-01  3.64948320e-03 -3.75746749e-02  1.29759181e-02
  -4.09907103e-02 -1.12409741e-02 -4.21566814e-02 -3.51498313e-02
   2.31554732e-03  1.33477885e-03 -5.25826439e-02 -3.79342884e-02
  -7.20750093e-02  5.38047403e-02  4.91847936e-03 -8.60102624e-02
   3.93746719e-02 -8.41160771e-03  5.86836413e-03 -7.30228722e-02
  -5.86637780e-02  5.13696335e-02  4.70802523e-02 -1.90714486e-02
  -6.61994144e-02 -4.99848388e-02  3.26087102e-02 -1.71296224e-02
  -1.04677610e-01 -6.90637156e-03  8.70808959e-02  5.86378761e-02
   3.27545330e-02 -1.38786927e-01  4.05609794e-02 -4.84707505e-02
  -1.22854328e-02  3.25717777e-02 -2.46305056e-02  1.59622859e-02
  -7.96721578e-02 -2.94236355e-02  2.24379823e-02 -5.50741702e-03
  -5.21202059e-03 -5.18433638e-02 -2.65028477e-02  2.40506697e-02
   1.12895817e-01  3.12468503e-02 -8.82568881e-02  7.33755231e-02
   2.55293157e-02 -3.44341919e-02 -1.10465668e-01 -5.23147136e-02
  -1.20210685e-01 -1.47770382e-02 -3.38584781e-02  2.98994221e-02]
 [ 3.80673259e-02 -2.13573258e-02  1.03473067e-01 -6.16417378e-02
  -5.87302959e-03  2.20293794e-02 -2.30669137e-02  7.67216086e-02
   2.00088844e-02 -7.89347813e-02  3.73238176e-02  7.36383116e-03
  -3.22916880e-02 -4.41562943e-03 -7.05489144e-03  1.28056379e-02
  -3.83025333e-02 -1.70303421e-04  2.40693595e-02  2.59614233e-02
  -5.99021912e-02  3.21793593e-02  1.69509053e-02 -2.13764049e-02
   6.96533993e-02 -2.98585314e-02 -9.98650491e-02 -3.06809098e-02
  -2.75776207e-01 -8.40977207e-03  4.80694771e-02  7.26053538e-03
  -2.32628714e-02  2.10000370e-02 -2.80446708e-02 -8.00602417e-03
   1.26905423e-02 -1.83042325e-02 -4.75935377e-02  4.37545497e-03
  -3.48882042e-02 -7.09818155e-02 -3.64673696e-02  2.94612795e-02
  -3.21272970e-03 -3.30610760e-02  9.46060047e-02 -7.47293830e-02
   4.57021706e-02 -4.06348333e-02 -3.17794122e-02 -4.31374609e-02
   2.22724527e-02 -6.16933517e-02 -1.34382144e-01  2.14459509e-01
   2.63706911e-02  1.34844288e-01 -1.40810892e-01 -6.41061515e-02
   7.30976276e-03  5.75879915e-03  4.09322865e-02  2.69720349e-02
   1.05482331e-02 -6.33919239e-02  1.18156290e-02  2.62235496e-02
   6.98097795e-02 -1.36221340e-02 -4.54211868e-02  3.30615081e-02
  -6.08061068e-02 -4.40245271e-02 -1.01157138e-02 -6.82080388e-02
  -6.55046329e-02  2.52089314e-02  1.00995805e-02 -4.49414970e-03
  -5.28401509e-02  1.60253502e-03 -2.02972785e-01  3.97571316e-03
   2.94992607e-02 -2.59958990e-02 -2.52998583e-02 -2.43778944e-01
   7.31384801e-03 -2.47053634e-02 -2.10614726e-02 -6.22055791e-02
  -1.73399262e-02 -1.82139482e-02 -3.14589851e-02 -2.37449128e-02
   1.63115531e-01 -2.41213059e-03  3.50046419e-02 -5.53939212e-03
  -4.71537560e-02 -7.38030896e-02 -1.48502942e-02 -5.07695563e-02
  -1.65933482e-02  2.19604850e-01  3.48579437e-01  1.43176705e-01
  -5.71068004e-03  4.60373797e-03  3.71760502e-02  3.89306135e-02
   1.87733062e-02  2.65997322e-03 -1.56739205e-02  4.45594341e-02
  -4.63621765e-02  1.63306162e-01 -5.73053136e-02  8.61996859e-02
  -4.37479466e-02  3.17967385e-02 -2.08071828e-01  4.45715077e-02
  -2.80468464e-02  2.26112809e-02  2.69386880e-02 -5.46985716e-02]
 [ 3.93804684e-02 -2.83844192e-02  1.71865579e-02 -4.21453305e-02
  -4.58221473e-02 -6.65716305e-02  3.52499932e-02  5.33357486e-02
  -1.61334164e-02 -2.73905452e-02 -4.28734086e-02 -5.21339662e-02
  -8.39381218e-02 -4.20465395e-02 -5.49434423e-02  1.58356018e-02
  -8.95159766e-02  5.07494621e-03 -1.49642199e-01  2.65934467e-02
   2.52654944e-02 -5.79546280e-02 -6.57111080e-03  1.72208920e-02
   5.57444580e-02  1.15842037e-02  5.23027685e-03 -5.33630932e-03
  -3.71088237e-02 -3.46939638e-02  7.92160928e-02 -5.24810068e-02
   3.09008341e-02 -6.23096786e-02 -7.25596957e-03 -6.00703293e-03
   7.98735693e-02  2.69769803e-02 -4.26087193e-02  2.74114478e-02
  -8.39303657e-02 -1.61338542e-02 -4.54647206e-02  1.65857002e-02
   3.87673192e-02 -3.21823061e-02  1.77086741e-02  3.28604318e-03
  -5.30532468e-03 -2.37195333e-03 -2.33768509e-03 -1.29345329e-02
  -1.81989651e-02  2.47599613e-02  1.62849599e-03  7.12938905e-02
  -3.46011817e-02  1.98949985e-02  8.20493922e-02 -4.10351641e-02
   4.59399261e-02 -1.42091233e-02  3.37044112e-02  1.72495674e-02
  -3.82119864e-02  3.27178068e-03 -1.00271426e-01  3.76713499e-02
  -4.45900112e-02 -5.30827381e-02 -7.54947811e-02  6.21476211e-02
   1.68265309e-02 -1.65765081e-02  5.23508415e-02  9.51826293e-03
  -1.78705342e-02 -5.44488691e-02 -7.66543895e-02 -2.74751652e-02
   7.25197569e-02 -4.50134277e-02  7.38919079e-02 -7.01737851e-02
  -4.10294496e-02  1.60503611e-02  7.39226537e-03  1.36423558e-02
  -2.89069451e-02 -6.80162460e-02  2.05142796e-02  2.07763836e-02
   4.60021086e-02 -2.27285381e-02 -1.08607002e-01 -2.01216154e-02
   2.48294361e-02 -7.02363551e-02 -1.27069019e-02 -7.72686526e-02
  -2.14656368e-02 -2.38916688e-02  2.23665666e-02  4.20568846e-02
  -7.85360113e-02  9.99972299e-02 -6.69370815e-02 -8.03165361e-02
  -6.60589337e-02  6.99558668e-03 -8.33460502e-03  1.25635117e-02
  -3.43225598e-02 -4.79765274e-02 -5.71501367e-02 -4.67123948e-02
   8.07925090e-02 -4.49566767e-02 -4.67399247e-02  2.19970420e-02
  -4.89088222e-02 -2.41733924e-03 -3.57194878e-02 -7.36070797e-02
  -1.08969204e-01 -1.60004850e-02 -8.38909205e-03 -6.48365021e-02]
 [ 5.16311340e-02 -8.01526383e-02 -6.48025423e-02 -2.08226107e-02
  -6.18569367e-02  3.87711786e-02  2.03492008e-02  3.58860940e-02
  -2.61704940e-02  1.34896589e-02 -4.38937023e-02 -5.45769073e-02
  -5.25547974e-02 -2.50385124e-02  2.32814346e-02  1.76624171e-02
  -4.33475636e-02 -5.86758554e-03 -1.71944544e-01  2.75203660e-02
   5.00397570e-02  1.55428459e-03 -6.44191802e-02 -3.22905816e-02
  -1.87151060e-01 -2.59397231e-04 -1.97534189e-02 -1.18430536e-02
  -1.13854147e-02 -4.93566245e-02 -3.73159871e-02 -1.81772634e-02
   1.53918350e-02  4.55889553e-02 -4.20649350e-02 -4.87644076e-02
  -4.63651586e-03  2.95505524e-02 -1.27231248e-03  8.87824595e-03
   3.69923301e-02  3.53406854e-02 -2.81871017e-02 -9.36673954e-03
  -3.22460681e-02  2.51514129e-02  9.15901083e-03 -5.10095991e-02
  -3.38013396e-02  3.66553739e-02  2.71690488e-02 -8.26737583e-02
  -2.45345999e-02 -2.47482080e-02 -6.76060095e-02  5.82126565e-02
   2.10779104e-02  3.12816650e-02  9.13054273e-02  2.76329424e-02
   3.69995385e-02  5.66296466e-03  3.93678062e-02 -1.87413469e-02
   3.54006849e-02  4.01199162e-02 -3.82381044e-02 -6.41349852e-02
  -1.52254496e-02  4.83041862e-03  8.46364163e-03 -4.12087217e-02
   1.89716388e-02 -6.30527735e-02 -4.91032042e-02  3.46251472e-04
  -4.68206666e-02 -6.44745603e-02  1.77536830e-02  1.23408111e-02
   8.01110044e-02 -1.00661971e-01 -5.98713122e-02  5.00120129e-03
  -1.03341392e-03 -3.08313705e-02 -1.60117857e-02  1.15876971e-02
   3.24319936e-02 -2.33478043e-02 -3.62840444e-02  3.09378356e-02
   6.00438006e-02 -8.06452334e-02  1.12519935e-02 -1.63843203e-02
   9.76416692e-02  3.02402070e-03 -1.02569601e-02 -6.76553696e-02
  -7.01956451e-03 -4.75784019e-02  3.66567299e-02  2.10235026e-02
  -5.27078025e-02 -3.77947390e-02  1.15182288e-02 -2.24127620e-02
  -4.94427383e-02  3.32580209e-02 -3.71019170e-02  1.87891852e-02
  -4.46982160e-02  4.44130450e-02 -3.72236855e-02  1.98998917e-02
   8.71171132e-02 -4.30364497e-02  8.10081139e-03 -2.70969309e-02
   1.28546609e-02 -5.69490083e-02  5.20162694e-02 -6.06754720e-02
   3.68167995e-03  1.10846944e-03 -2.04087730e-04  4.58219089e-02]
 [ 2.04320420e-02  2.94507891e-02  1.63194761e-02 -2.66513042e-02
   5.83934039e-02  6.65681809e-02  1.81677062e-02  5.37493788e-02
   7.36776739e-03  1.71268657e-02 -2.79837078e-03  3.55661735e-02
   3.12296450e-02  3.23990881e-02 -4.10244986e-02 -6.71484694e-02
   9.54572186e-02 -3.76355313e-02  1.41729880e-02 -4.13198061e-02
   2.87462287e-02  4.58920747e-03  1.69107392e-02  8.18995945e-03
   3.02718449e-02  9.87809617e-03  1.10813238e-01  3.50935385e-02
  -2.87152112e-01 -1.08009586e-02 -6.32996410e-02 -3.38286348e-02
  -2.35603023e-02 -2.11219490e-03 -3.98573093e-02 -2.28703525e-02
  -7.26615638e-02  3.63105237e-02  1.26451567e-01  2.94301473e-02
  -2.49984264e-02 -1.05090439e-05  8.54678154e-02  1.42043605e-02
  -3.40728834e-03 -2.42783148e-02 -4.35820855e-02  2.67014951e-02
  -2.87828594e-02  5.75008839e-02 -2.49413438e-02  3.55243608e-02
  -5.05826855e-03 -3.10467482e-02  3.88787806e-01 -1.83646847e-02
   5.63099533e-02 -5.85789001e-03 -4.63109463e-02 -1.13717243e-02
  -1.64943431e-02 -4.48112786e-02 -4.71109264e-02  3.76063026e-02
  -4.06266786e-02  7.58716930e-03 -1.97656453e-02  1.81735709e-01
   1.82521358e-01  3.30163576e-02 -1.78601425e-02 -2.62502320e-02
  -5.72900735e-02  2.16499716e-03 -2.32779503e-01  8.54540057e-03
   3.95935774e-02 -1.80280395e-02 -5.23895510e-02 -9.45692882e-02
  -7.70301372e-02 -8.16259980e-02 -8.83151442e-02  5.69218770e-02
  -3.32391039e-02  5.53724542e-02 -2.54618116e-02  1.83413886e-02
  -7.52683124e-03  2.04316303e-02 -4.70978059e-02 -5.84743954e-02
   3.97683866e-02 -1.64580092e-01 -1.44673763e-02  2.13486552e-02
  -1.62952036e-01 -3.08359507e-02  2.29440033e-01  2.22525373e-02
   3.60739380e-02 -1.04971007e-01  1.07506737e-02  5.58270738e-02
  -6.07768679e-03 -2.86163092e-01 -3.50138498e-03  6.50540274e-03
  -1.85763394e-03 -9.15507898e-02 -4.30442244e-02  6.69241650e-03
  -9.42054093e-02 -5.07334881e-02 -5.62962927e-02  1.41183585e-02
   1.39125347e-01  1.30321264e-01  4.18332464e-04 -2.64953375e-02
   1.73396319e-02 -3.60514224e-03 -2.06518322e-02  9.82911885e-03
  -1.33100182e-01 -3.82381305e-03  5.11002913e-02  8.57237633e-03]
 [ 3.39607298e-02  3.47533356e-03 -1.88472960e-02 -9.71079804e-03
  -8.33840761e-03  8.99877679e-03 -6.17145300e-02 -3.27003412e-02
   5.10149263e-03  3.38038057e-02 -2.02481486e-02  3.54455225e-02
  -4.11929935e-02  1.65033862e-02 -5.69851547e-02 -1.07328802e-01
  -2.10832395e-02  1.79449059e-02  3.13463472e-02  2.43267859e-03
  -4.97242808e-02  2.25665085e-02  5.85098118e-02  3.45960520e-02
   2.47218776e-02 -5.88512383e-02 -9.92008522e-02 -8.07497371e-03
  -6.06100112e-02  2.60218550e-02 -5.51375886e-03  3.03218588e-02
   5.52202612e-02 -4.39217389e-02 -6.62808791e-02 -2.25235824e-03
   2.45493092e-02  1.74250808e-02 -5.76814786e-02 -3.78792211e-02
  -8.40052590e-02 -6.64648339e-02 -2.61213500e-02 -4.92086299e-02
  -6.56539425e-02  1.66205317e-02  5.62491342e-02  2.50522625e-02
   3.70927528e-02 -4.06953357e-02 -2.96710199e-03  6.54641241e-02
   1.28311679e-01  1.66125745e-02 -5.95157780e-02 -1.31920174e-01
  -1.02899375e-03 -9.13028345e-02 -3.59811895e-02 -2.38074716e-02
  -4.04043570e-02  2.64467467e-02  4.45131250e-02 -4.77245264e-03
  -1.82158197e-03 -2.47523144e-01  5.05542643e-02 -6.15947545e-02
  -8.65217894e-02 -9.05646384e-02  1.93219893e-02  3.88451517e-02
  -1.00389324e-01  2.79792193e-02  1.16990931e-01  3.01651414e-02
  -5.41010462e-02 -6.43813312e-02 -5.80463149e-02 -1.65766969e-01
  -1.72607936e-02 -8.46176445e-02 -1.90372150e-02  1.78841315e-02
  -1.85214374e-02 -1.42549155e-02  2.87605189e-02 -2.00989135e-02
  -6.34971410e-02 -1.13989906e-02 -4.30040667e-03  3.63862673e-05
   7.71681359e-03  5.46373501e-02 -3.46798934e-02 -5.50449686e-03
  -8.22186843e-02  2.87879072e-02 -3.57910022e-02  2.71556433e-02
   5.25367679e-03  2.32433863e-02 -6.32061362e-02 -5.27995341e-02
  -4.73351963e-03  1.18084028e-01 -2.68740915e-02  2.30645183e-02
   2.34638527e-02 -2.54016686e-02 -6.80842027e-02 -5.23464903e-02
  -9.18742493e-02  3.23404223e-02 -1.05503291e-01  4.52026725e-02
   2.76047979e-02 -1.18990503e-02  6.88468218e-02 -2.34830696e-02
  -4.76428978e-02 -1.00750588e-01 -5.11480756e-02 -2.39887331e-02
   1.25012314e-02  7.38077983e-03  4.96507920e-02 -3.70468162e-02]
 [-6.82436600e-02  7.69395195e-03 -9.36198165e-04 -2.59520598e-02
  -3.81627455e-02 -4.89189215e-02 -5.04621565e-02  3.81120518e-02
   7.96652734e-02  7.25963190e-02 -6.09918647e-02 -3.52434069e-03
   3.69682051e-02 -3.94623131e-02  4.02706042e-02 -1.81751207e-01
  -1.23683624e-02  2.32903324e-02  7.49096274e-02 -9.10125300e-02
   1.03699360e-02 -3.61735672e-02  5.56111112e-02 -6.78494796e-02
  -3.56463827e-02  1.73377562e-02 -3.22423428e-02 -2.91086305e-02
   5.94787784e-02 -8.61362088e-03 -1.42532438e-02 -5.41790435e-03
  -3.54108848e-02  4.17322554e-02 -3.19120511e-02  2.13493761e-02
  -5.93827069e-02  2.08047554e-02  8.03963616e-02  1.03248013e-02
   2.30867397e-02 -2.09245402e-02  7.86806345e-02  2.78662816e-02
  -6.52842298e-02 -1.28729977e-02  1.70453802e-01 -6.01470172e-02
   3.64654027e-02 -5.95397763e-02  2.05503032e-02 -3.36751230e-02
  -3.69811356e-02 -2.52423789e-02 -8.65515396e-02 -5.78201078e-02
   9.80958622e-03 -1.09295785e-01  3.49893980e-03  5.15389405e-02
  -2.44649057e-03  1.03005171e-02 -2.26608943e-02  9.45620388e-02
   7.96537288e-03 -1.85793087e-01 -6.47485778e-02 -1.43361315e-01
   1.99839577e-01 -2.23312564e-02 -2.27574110e-02 -7.58233368e-02
  -4.54724729e-02  3.46830748e-02 -5.29476367e-02 -5.12898946e-03
  -4.69869711e-02  3.03178839e-02 -3.42669664e-03  1.76365986e-01
  -1.66909188e-01  3.48807015e-02  7.19321445e-02  3.91610935e-02
  -2.36666016e-02  6.05269112e-02 -2.07281094e-02 -5.52493297e-02
   9.94771440e-03 -1.12572534e-03  4.10651229e-02 -3.44735198e-02
  -3.19351591e-02 -8.88239816e-02  7.74858939e-03  4.16627862e-02
   5.69536164e-02  5.53315803e-02  7.93560743e-02 -2.03833114e-02
   4.21808474e-02 -8.54276344e-02 -1.42675415e-02 -2.31381156e-04
  -1.07522709e-02 -1.21362202e-01  7.95832127e-02 -2.31188741e-02
   3.00653838e-03  2.88445838e-02 -3.14654112e-02  3.42202522e-02
  -4.92464565e-03  3.13105062e-02 -4.37639691e-02 -4.31747586e-02
   1.04888134e-01 -2.84710579e-04 -3.29790637e-02  5.36226435e-03
   1.05370907e-02 -1.79893430e-02 -1.50249675e-01 -5.02190851e-02
  -3.10026258e-02  1.62269622e-02 -3.64568494e-02 -2.88443975e-02]
 [-1.70058552e-02  7.93075655e-03  7.77004147e-03  3.08037410e-03
   4.71564867e-02  3.75909470e-02 -6.77663740e-03  5.04345000e-02
   4.12281044e-03  4.70458232e-02 -6.56097382e-02 -1.99170839e-02
  -5.77937029e-02 -1.14551876e-02 -1.98245878e-04  9.29724500e-02
  -1.53468654e-01 -5.26798368e-02  9.21449140e-02 -5.39871193e-02
   5.20421797e-03 -7.33242184e-02 -3.86135429e-02  1.06771709e-02
  -1.12231299e-01 -4.70494293e-02 -9.28689614e-02  4.41714264e-02
  -9.49647948e-02 -1.76811975e-03 -7.60098621e-02  5.86343138e-03
  -1.05410859e-01  3.83583009e-02 -7.47715309e-02 -6.28310442e-02
  -1.40786348e-02 -6.32888125e-03 -8.14186558e-02 -1.84554681e-02
   1.79271474e-02 -2.61147972e-02 -5.96287549e-02 -2.44450979e-02
  -1.66375320e-02  1.24857659e-02  1.02146596e-01 -4.94385958e-02
  -2.39080247e-02  3.02932933e-02  5.20436233e-03 -6.93871602e-02
   6.57669380e-02 -5.68617694e-02 -1.21014349e-01  1.39869833e-02
   2.65660435e-02 -2.45020427e-02 -2.15735403e-03 -4.54644486e-02
   2.59746332e-02 -8.26743338e-03 -2.12495551e-02 -4.61890325e-02
   4.29048389e-02 -1.23480611e-01 -7.50006177e-03 -8.09821337e-02
  -9.37838852e-02 -5.89178549e-03  1.66412052e-02  1.89349856e-02
  -1.53170049e-01  1.28027335e-01  1.25358030e-01 -4.10929956e-02
  -5.98503165e-02 -3.72898281e-02 -2.77750678e-02  9.12908837e-02
  -7.25650117e-02  9.34420228e-02 -8.30488503e-02 -3.69506702e-02
  -4.43610884e-02  2.37783454e-02 -5.83775677e-02 -1.06540598e-01
  -2.58501153e-02 -7.84276873e-02 -1.08960522e-02  4.61579263e-02
  -2.30851229e-02  2.60631423e-02 -2.32274923e-02  3.38526070e-02
   6.77330643e-02 -1.70077998e-02  1.70134529e-01  3.06099690e-02
   1.09033529e-02  4.60638478e-03 -3.98164131e-02  2.81458274e-02
  -4.02857251e-02  1.42173767e-01  1.04162656e-01  6.03106134e-02
  -1.65476315e-02  1.16428025e-01  1.92896463e-02 -1.50587168e-02
  -5.18954545e-02  3.48225012e-02  9.97839868e-03 -1.25862414e-03
  -1.35383725e-01  1.38352998e-03 -1.91620998e-02  3.79953422e-02
  -5.00884056e-02 -8.82468894e-02 -8.84345025e-02 -6.21678084e-02
  -4.44981344e-02  4.12613973e-02  1.48341814e-02  2.00737510e-02]
 [ 5.29615965e-04  2.77823955e-03 -3.88046727e-02 -3.63301560e-02
   7.66993454e-03  1.88400894e-02  2.23335773e-02  1.00787133e-02
  -8.69858172e-03 -8.19602236e-02 -9.31152515e-03 -3.61286625e-02
   7.90884066e-03  8.94221291e-03 -3.06725893e-02 -7.78812096e-02
   3.51278596e-02 -5.14042489e-02 -3.01233847e-02 -8.89835320e-03
   2.14307420e-02 -3.95715237e-02 -7.92895444e-03 -1.89917199e-02
   3.00520044e-02  3.34975943e-02  3.90039124e-02  8.87463428e-03
   2.41735857e-03 -8.37539658e-02  6.26429692e-02  2.25140750e-02
   3.35731469e-02  3.32533987e-03 -8.23328495e-02 -1.22538663e-03
  -7.14018242e-03 -6.22165091e-02 -7.71879330e-02 -7.29462728e-02
  -5.04247136e-02 -5.20530604e-02  4.05116566e-02  3.21046971e-02
   4.92659584e-02 -5.61093688e-02 -6.58184215e-02 -3.62770719e-04
  -1.31884264e-02  1.90906921e-05 -5.61952144e-02 -7.11194500e-02
   1.01861455e-01 -1.38547476e-02 -5.66028915e-02  1.01963855e-01
  -1.17108658e-01  6.77397624e-02  1.00554623e-01  1.78374932e-03
  -5.33572175e-02 -3.30423452e-02  1.64681545e-03  3.39640528e-02
  -4.24173102e-02 -7.31912106e-02  1.08845932e-02  3.01238373e-02
  -6.31231740e-02 -3.37997265e-02 -6.64063022e-02  6.99030086e-02
   5.21313474e-02 -5.09778634e-02  2.82054748e-02 -2.80766785e-02
  -6.35067001e-02  1.46050872e-02 -8.92312005e-02 -9.33102425e-03
  -2.45524719e-02 -6.04446605e-03  3.04448530e-02  4.28834604e-03
  -4.10285816e-02  2.84110606e-02  5.36309974e-03  1.05988711e-01
  -7.58870989e-02 -2.33504847e-02 -5.35970628e-02  1.38712674e-02
  -3.55298119e-03 -5.15428148e-02 -1.95824541e-03 -4.77170683e-02
   2.09694691e-02 -9.64180380e-03  4.05695513e-02 -2.63752835e-03
  -4.37382683e-02 -3.71349067e-03 -5.51280603e-02  2.67021079e-02
  -4.49536033e-02  1.31669447e-01 -8.57325271e-03 -6.59399256e-02
  -6.27059191e-02 -4.72126342e-02 -4.42974688e-03 -5.57041131e-02
  -2.19532680e-02  3.69173847e-02 -1.00791417e-02  1.14165032e-02
   8.92080963e-02  2.62170918e-02 -2.09475327e-02 -5.72717898e-02
   9.20964312e-03 -7.54102990e-02  9.24752578e-02  1.88656021e-02
  -1.26559108e-01 -7.21846372e-02  2.52792016e-02 -1.25118066e-02]
 [-4.13356200e-02 -5.30097447e-03 -2.21134908e-03 -2.31815432e-03
  -6.33786172e-02  9.57919937e-03 -3.09342006e-03 -8.60085562e-02
  -4.41657519e-03 -9.00908634e-02 -1.52724301e-02  2.70186141e-02
  -1.82262119e-02  2.80674212e-02 -1.62785854e-02  2.59715249e-03
  -3.39029655e-02 -2.10565627e-02 -1.35983273e-01  4.27179970e-02
  -2.75356639e-02 -3.15081067e-02 -2.73589557e-03  1.74822304e-02
  -6.52136356e-02  3.25732306e-02  5.10307960e-02  1.76653489e-02
  -7.43405297e-02 -1.04838625e-01  4.57534492e-02 -7.45090097e-02
  -3.91008481e-02 -5.32399900e-02 -1.05072157e-02 -2.08224766e-02
  -1.04195677e-01  2.10678093e-02 -2.26400420e-02  3.10466923e-02
   3.53780831e-03 -2.31658146e-02  1.34683847e-02  4.77404473e-03
  -1.99417043e-02 -8.77637416e-03  2.14049537e-02 -3.14097367e-02
  -8.20844527e-03 -6.63660839e-02  1.48397041e-02  3.64271440e-02
  -1.96467843e-02 -5.43707944e-02 -7.49696642e-02 -6.75729150e-03
  -3.09303831e-02  1.22065637e-02  8.97734910e-02 -2.60523595e-02
  -4.94140387e-02 -4.88068834e-02  4.48443182e-02 -5.42746000e-02
   2.76098028e-02 -4.88069933e-03 -2.10910644e-02 -2.39150878e-02
  -5.61383436e-04 -5.00998273e-02 -7.35073211e-03 -7.77716842e-03
   6.51488975e-02 -1.12119213e-01 -1.44103274e-01  2.43322719e-02
  -4.08525877e-02  1.50302332e-02 -5.05404873e-03  7.08119497e-02
   4.55234572e-02 -3.96694615e-02 -2.10527107e-02 -2.54491642e-02
  -2.62621194e-02 -1.63293313e-02 -4.71095480e-02  7.24010617e-02
  -7.38238916e-02  2.68707518e-02 -5.64949922e-02 -6.33993372e-02
   6.64204033e-03  4.31372523e-02 -6.23385049e-02 -5.13670705e-02
   2.89164241e-02 -6.49516820e-04 -1.61572486e-01 -7.55636841e-02
  -2.05797050e-02  1.19727049e-02  2.68308502e-02  4.32313234e-02
  -6.47128597e-02 -1.41138494e-01  1.35705108e-03 -2.59472959e-04
   5.41370623e-02 -4.94029489e-04  4.99316817e-03  4.79410915e-03
   4.30445708e-02 -5.88984303e-02  1.39986258e-02  6.26848591e-03
  -3.94710302e-02 -6.17317520e-02 -5.40212914e-03 -6.32551983e-02
  -4.68860148e-03 -6.29739240e-02  5.76788560e-02 -5.39536700e-02
   7.34115914e-02  4.90218326e-02 -1.13259749e-02 -6.77433331e-03]
 [-4.00394108e-03 -4.32319976e-02  8.71588066e-02 -1.03790686e-03
  -1.49309263e-02  4.67604063e-02 -3.17683555e-02 -4.44180041e-05
  -1.83718838e-02 -2.30299309e-03 -5.47107821e-03  5.94813824e-02
   3.57592925e-02  1.25956461e-02  2.31928751e-02 -2.93127727e-02
   2.16927767e-01  6.45717187e-03  4.42175847e-03 -5.75062931e-02
  -4.08156663e-02 -5.49403913e-02 -7.30440021e-03 -7.65671059e-02
  -1.87763363e-01 -7.96527714e-02  1.20663662e-02  3.93489748e-02
  -2.33018622e-01  7.94711038e-02 -2.97048599e-01  6.89183995e-02
   2.65819151e-02 -1.01942867e-02  5.45876026e-02  1.61753483e-02
   8.17642454e-03 -5.09028174e-02  1.22379854e-01  6.42845687e-03
   5.08948043e-02  3.36208642e-02  9.84441191e-02  5.89264706e-02
   1.88344941e-02  4.67515998e-02 -4.24265601e-02  2.41006222e-02
   5.77189848e-02  4.46825996e-02  2.34147087e-02  3.47410403e-02
  -2.78639905e-02 -5.87064028e-03  3.40917975e-01  4.62636203e-02
   3.02902348e-02  2.39237193e-02 -1.28786370e-01 -5.41949011e-02
   6.30347505e-02  1.05808051e-02  2.83970386e-02  1.03766602e-02
   2.76904218e-02 -1.01433329e-01  4.81307730e-02  3.61601450e-02
   3.62896882e-02 -2.35810243e-02  9.26598310e-02 -3.33435386e-02
   5.82171828e-02  9.78298038e-02 -1.83407143e-01 -5.27841635e-02
  -4.80728447e-02  4.98503912e-03  6.05817921e-02  7.26242410e-03
  -1.05215162e-01  1.34947188e-02  7.53002390e-02 -5.97316474e-02
  -4.78936097e-04 -4.62735519e-02  7.16876984e-03  8.31052884e-02
   6.20974181e-03 -2.61769835e-02 -5.90258054e-02  3.63118201e-03
  -1.05414735e-02 -9.07446146e-02  5.95266856e-02  1.35672167e-02
  -1.17581561e-01 -1.22212432e-02  3.40431333e-01 -1.08361067e-02
   2.61991024e-02 -1.03621401e-01  9.14464146e-03  1.23961642e-02
   2.93905288e-03 -8.87081772e-03  1.07214682e-01  4.62423153e-02
  -4.34069149e-02  2.31329128e-02 -4.13654223e-02 -7.27280527e-02
  -7.17675239e-02 -6.47350326e-02  5.81670105e-02 -6.29583597e-02
  -4.39665876e-02  5.88959232e-02  2.41077300e-02  1.65963843e-02
  -5.27631491e-03  1.45295784e-02 -2.36580566e-01 -1.42263928e-02
  -5.19979298e-02 -1.89043060e-02  2.93350089e-02  1.00827701e-02]
 [ 4.45727073e-02 -6.04075007e-02 -1.11560645e-02  3.78534757e-02
  -2.14457512e-02  1.53730558e-02 -3.22685689e-02 -7.76707530e-02
   1.57429557e-02 -4.15657349e-02  4.23060432e-02  9.88073554e-03
  -4.07930324e-03  3.12504061e-02  1.66348591e-02 -2.55930535e-02
  -1.03473231e-01 -9.74226519e-02  2.96546426e-02 -2.83166841e-02
  -8.95618126e-02  3.00546046e-02  2.82777920e-02 -5.94517402e-02
   6.79449318e-03 -1.47385709e-02 -6.30402192e-02 -1.26309749e-02
  -7.87784904e-03 -7.86194354e-02  2.35808995e-02  6.64552897e-02
  -5.71375713e-02 -1.95449572e-02 -2.51002312e-02  1.70608293e-02
   2.86682602e-02  1.14559196e-02 -7.67536461e-02 -2.44770795e-02
  -6.32887483e-02 -2.88741365e-02  9.67178680e-03  1.25208693e-02
   1.97432227e-02 -4.90367115e-02 -3.06715965e-02 -7.33136609e-02
  -1.48756672e-02 -5.42856306e-02 -5.37628978e-02  1.71721950e-02
   3.33915688e-02 -6.83058947e-02 -3.69248837e-02 -1.13155901e-01
   4.82366607e-02 -7.75566325e-02  3.65436934e-02 -4.39611787e-04
  -2.63773911e-02 -2.40941276e-03 -5.91201745e-02 -5.27782366e-02
  -6.11934103e-02 -2.80997813e-01 -3.83829065e-02 -6.22394793e-02
  -3.98887508e-02 -7.45408162e-02 -1.26916282e-02  3.17284539e-02
  -1.19811453e-01  8.40127468e-02  4.92672883e-02  4.79434058e-02
  -5.23093976e-02 -2.61340439e-02 -3.98998111e-02 -1.72322929e-01
  -9.78931114e-02  6.69487379e-03 -4.17914502e-02 -6.36866614e-02
   4.69384855e-03  4.65091318e-02  4.98255715e-03 -2.25618202e-02
  -3.94685939e-02 -5.55732027e-02  2.23495588e-02 -3.49060912e-03
  -2.01943070e-02  7.68077653e-03 -7.03381449e-02 -4.12286147e-02
  -1.22565120e-01 -2.95917895e-02  8.24427418e-03 -3.65495235e-02
   2.52998993e-02 -3.16145085e-02  4.19460461e-02 -7.09596500e-02
  -3.54135334e-02 -3.06500675e-04 -5.82537316e-02  4.97703813e-02
  -3.29691172e-02 -1.60739361e-03 -3.87434214e-02 -8.20802972e-02
  -1.11645296e-01 -1.03424015e-02 -1.55771710e-02  2.06292942e-02
  -4.03293446e-02 -8.13800283e-03 -2.95366207e-03  1.50637086e-02
  -1.93484128e-02 -8.16541165e-02 -1.23193040e-01 -3.55412140e-02
  -1.56794101e-01 -7.81312119e-03 -5.48710376e-02 -4.58247550e-02]
 [-5.45855984e-02 -3.24831456e-02 -5.14731482e-02 -2.20012292e-02
   2.87518650e-03 -5.38224056e-02  2.89966865e-03  2.74828430e-02
   1.78880524e-02 -2.39800904e-02 -3.69588770e-02 -4.61205244e-02
   5.75440228e-02  4.58708853e-02 -3.41884345e-02 -4.71093245e-02
  -6.35266397e-03 -6.49244851e-03  2.95693595e-02 -6.77624419e-02
   4.33973335e-02  4.91369367e-02 -3.07230651e-03  9.16258246e-03
  -9.77554768e-02  1.33690154e-02 -3.54448110e-02  3.11178342e-02
  -9.62337572e-03 -2.07354799e-02  2.37628907e-01 -5.98368682e-02
  -4.97466400e-02 -6.93015847e-03 -5.89434467e-02 -3.67467441e-02
  -2.18956135e-02 -1.84044871e-03 -5.88853545e-02  3.08514256e-02
  -7.02778175e-02 -7.02183619e-02  9.94482264e-02 -4.99779843e-02
  -3.98281887e-02 -3.21886651e-02  1.53700173e-01  2.44831294e-02
   3.99218984e-02  4.79988568e-02  7.12817581e-03  6.36654124e-02
  -1.06188571e-02  4.22289036e-02 -1.78550109e-01 -4.50392216e-02
  -1.86384637e-02 -5.62263504e-02  1.36507945e-02  2.10839603e-02
   1.27696702e-02 -1.85992308e-02  6.91440031e-02  5.27702011e-02
   3.96831222e-02 -2.27002993e-01 -1.57804582e-02 -1.40465930e-01
   2.65585124e-01 -8.92908499e-02 -2.82597989e-02 -3.83916404e-03
  -1.98724955e-01  5.82255386e-02 -3.66626866e-02 -7.03348732e-03
  -9.31107551e-02 -7.62924254e-02 -2.29738336e-02  1.99722886e-01
  -1.10475808e-01 -1.04005262e-01  9.88615025e-03 -4.02026251e-02
  -5.77482469e-02 -1.49383740e-02 -3.82884219e-02 -1.90055057e-01
   1.16100451e-02  4.39345278e-02  3.40063423e-02  4.03108373e-02
  -2.78069694e-02 -2.71086931e-01 -2.90933196e-02 -2.19228379e-02
   4.77640554e-02 -1.73079222e-02  7.04414118e-03 -1.79894622e-02
  -3.60770114e-02 -1.89329147e-01  2.06868313e-02  2.70505734e-02
   1.42569374e-02 -2.98487488e-04  1.75492853e-01  3.32075469e-02
  -6.48810416e-02 -3.00432723e-02  3.10351197e-02  9.74536389e-02
  -5.21388687e-02  2.36111991e-02 -2.91434731e-02 -1.14986025e-01
   1.32796858e-02  8.68764669e-02 -6.22990243e-02 -4.08072444e-03
   7.00703822e-03  1.61716435e-02 -2.50395507e-01 -5.38591594e-02
  -3.59220169e-02  4.49638814e-04 -4.27412130e-02  5.30729368e-02]
 [-2.83017065e-02  2.42219009e-02  2.03483105e-02  1.27768731e-02
   2.77719554e-03  1.37388306e-02  5.14327325e-02 -5.39883710e-02
  -1.31137832e-03 -7.75769651e-02 -3.12056448e-02 -2.46279277e-02
   5.95947122e-03  2.24968977e-02  2.64733043e-02  1.72911689e-01
  -1.54976368e-01  5.26390970e-03  3.46629992e-02 -1.20078956e-04
   4.97700945e-02 -1.11913122e-02  1.99107900e-02 -4.13122177e-02
  -4.73918803e-02 -1.71215069e-02 -1.68822277e-02 -6.36763424e-02
  -1.06730923e-01  9.88125452e-04  2.01069396e-02 -5.48121228e-04
  -8.49463344e-02 -9.82959103e-03  4.97670174e-02 -9.32703074e-03
  -5.09876348e-02  1.14436317e-02 -6.95275217e-02  2.47913576e-03
   7.85991102e-02 -2.65884995e-02  5.34917265e-02  4.63918969e-02
  -1.89297311e-02 -4.13821526e-02  1.86392561e-01 -1.10794744e-02
  -2.38077063e-02  3.92129607e-02 -3.20190191e-02 -2.05454938e-02
  -1.69221088e-02  1.38790905e-02 -2.08173469e-01 -2.22390015e-02
  -7.28154108e-02 -7.39852414e-02  8.30126554e-03  1.35124307e-02
  -3.08302809e-02 -6.01068418e-03 -3.93777527e-02 -5.21476977e-02
  -2.66679469e-02  1.64094687e-01  5.18891821e-03 -4.08263365e-03
   6.86746463e-02  1.47524048e-02  2.82661300e-02  1.13918120e-03
  -5.31957522e-02 -1.03977993e-02  1.31099895e-01 -5.01471497e-02
   6.58563003e-02  4.01103012e-02  2.58411486e-02 -1.35941925e-02
  -7.33271390e-02 -9.31669101e-02 -1.30307555e-01 -5.61063252e-02
  -2.66436208e-03 -4.79329936e-02  1.18961204e-02  2.95966566e-02
   4.78694774e-02 -4.76157330e-02  3.43002528e-02  1.39570404e-02
  -6.62603751e-02  7.05697313e-02  6.64339308e-03 -3.91822234e-02
  -4.67914082e-02  3.14304940e-02  5.69538474e-02  1.28553752e-02
  -1.73528213e-02 -1.65274560e-01 -6.59335181e-02  2.52494793e-02
  -3.82586010e-02  1.34427533e-01  6.97256401e-02  9.09247920e-02
   2.30971426e-02  5.87639846e-02 -1.96162164e-02  3.42163555e-02
   2.99634486e-02 -2.90248673e-02 -7.16732070e-02 -1.60384420e-02
  -9.27650556e-02  1.00480720e-01 -8.07612240e-02  2.72242408e-02
  -2.83427145e-02 -6.12433329e-02 -1.03548672e-02 -3.11248805e-02
  -5.63861541e-02 -6.68037385e-02 -2.68067941e-02 -8.62048753e-03]
 [ 1.44462837e-02 -3.34653142e-03  2.86256452e-03  3.40021066e-02
   2.81005297e-02  2.00721814e-04  9.61296540e-03  9.13088992e-02
  -3.39036100e-02 -7.22871125e-02 -4.28659730e-02 -4.26274687e-02
  -4.78865132e-02  1.40570290e-02  1.64413042e-02 -9.83356684e-02
   4.84047923e-03 -4.59701158e-02 -5.48370369e-02  3.15068886e-02
   4.55057919e-02 -5.60522303e-02  3.66422534e-02 -3.70868370e-02
   3.19152661e-02  4.18743230e-02 -3.55240777e-02  3.46313193e-02
  -1.25558740e-02 -1.09150387e-01  5.54794595e-02 -4.86291125e-02
  -7.35560805e-02 -1.67424660e-02  1.67993419e-02 -4.28200625e-02
   9.01403427e-02 -2.26264372e-02 -8.10668245e-02  1.25155393e-02
  -1.93174165e-02  5.02454303e-03 -4.08094041e-02 -4.02075797e-02
   4.80086803e-02 -5.17173344e-03 -8.94017816e-02  3.39801237e-02
  -4.24860464e-03  8.83695390e-03 -3.21381539e-02 -5.16155362e-02
   4.73027211e-03 -3.75851314e-03 -1.82663389e-02 -4.58927825e-02
  -6.36583343e-02  2.91692116e-03  5.29480800e-02 -5.96571974e-02
  -3.70415188e-02  2.66388357e-02 -7.35516101e-02  4.43871180e-03
  -4.82651591e-02 -8.63203220e-03  3.21691483e-02  6.91097975e-02
   6.90987473e-03 -9.31291580e-02  2.75273137e-02  4.27224711e-02
   5.99251240e-02 -1.02677017e-01  1.27134606e-01 -6.47856155e-03
  -5.85618913e-02 -5.57057075e-02 -5.62629327e-02 -5.83009943e-02
   1.46606769e-02  3.36865485e-02  9.56194475e-02 -6.15584757e-03
  -4.16500233e-02 -5.29781356e-02 -1.59576871e-02  2.37719323e-02
  -6.98126629e-02  6.56517083e-03 -7.52045866e-03  3.96307670e-02
  -7.60139301e-02  3.96664478e-02 -1.04200775e-02 -4.62227054e-02
   1.20807039e-02 -3.08528058e-02  3.12119294e-02 -1.58467833e-02
  -4.17959616e-02  8.19612667e-03 -3.34398746e-02  3.04366760e-02
   7.70029705e-03  7.35540763e-02 -2.28158385e-02 -4.53442335e-02
   2.11800206e-02 -6.91772997e-03 -2.35562064e-02 -2.15154570e-02
  -1.91910136e-02 -3.78653891e-02  4.78275903e-02 -3.22448835e-02
   1.06695525e-01 -2.81247050e-02 -5.88371381e-02  2.57373117e-02
  -8.77363011e-02 -1.83601752e-02 -1.07210042e-04 -2.76097544e-02
  -3.56981233e-02 -6.00073226e-02  2.16333978e-02 -2.57949140e-02]
 [ 4.25462164e-02  2.95691006e-02 -5.66766188e-02 -5.50230555e-02
   2.81672161e-02 -5.85099906e-02  4.51287255e-02 -2.47611515e-02
  -5.58990240e-02 -4.31613177e-02 -5.33571951e-02 -4.58973199e-02
   3.61635052e-02 -3.52762565e-02  1.29553406e-02 -3.06456517e-02
   6.65039122e-02 -6.14874363e-02 -2.13492006e-01 -7.53242373e-02
  -5.81607185e-02  8.77274293e-03 -1.33708399e-02 -3.19329649e-02
   8.51801876e-03  5.74043347e-03  1.15986168e-02  1.79802813e-02
  -4.84804325e-02 -1.06449835e-01 -3.71647887e-02 -8.02051499e-02
   1.26425207e-01 -5.64131960e-02  2.40880419e-02  1.59598943e-02
  -1.69630237e-02  1.59770052e-03 -5.01920991e-02 -6.63121790e-02
  -1.02162987e-01  3.51848491e-02  5.21152106e-04  1.17519796e-02
  -5.65547589e-03  2.77144462e-02  9.54935793e-03  4.37519848e-02
  -4.57195118e-02  4.05696146e-02 -5.89663454e-04 -4.43391353e-02
   3.52420053e-03 -1.11675644e-02 -5.98578937e-02  5.50311059e-02
  -8.11717473e-03  5.65913580e-02  9.27251279e-02  4.41491278e-03
   4.32095453e-02 -2.12562215e-02  2.28979345e-02  2.15069130e-02
  -3.36755887e-02  4.38491404e-02  7.36667076e-04  6.51753647e-03
  -7.20365793e-02  3.59034538e-02 -3.14105535e-03  2.16760226e-02
  -4.45347745e-03 -4.90986258e-02 -1.45705398e-02 -5.10017574e-02
   3.49035226e-02  4.04337905e-02 -3.42839733e-02  2.98290718e-02
  -3.96306254e-02 -1.02921598e-01  5.58836795e-02  7.16025475e-04
   1.85137745e-02  4.22839634e-02 -3.47821563e-02  8.24665949e-02
   5.84153365e-03 -2.29477882e-02  4.45266813e-02  1.23442300e-02
  -4.45884541e-02 -1.60965119e-02  5.18223681e-02  4.83366959e-02
  -3.03648179e-03 -2.76314281e-03 -1.42227024e-01 -5.63885793e-02
  -6.85537905e-02 -1.01810647e-02  3.93965691e-02 -3.83670889e-02
  -9.09498557e-02  1.21701956e-02 -4.54606265e-02  2.09723786e-02
  -5.45388050e-02 -8.23244229e-02 -3.15190442e-02  2.60043312e-02
  -3.26316841e-02  1.96178164e-02 -2.04198658e-02 -2.79353764e-02
   3.15031931e-02 -4.16605212e-02 -7.23993033e-02 -9.23305824e-02
  -7.74971023e-02 -5.70707992e-02 -4.36247252e-02 -6.00678176e-02
   4.52936105e-02 -6.50581867e-02 -7.53902867e-02 -3.10954563e-02]
 [ 4.37978022e-02 -4.67761084e-02  3.39944586e-02  2.56100148e-02
  -1.30621418e-02  6.18376583e-02 -8.85089338e-02  1.81314144e-02
   3.70767713e-03 -5.12714833e-02  1.36938430e-02  3.02736461e-03
  -3.76251414e-02 -4.14019451e-03 -5.14234528e-02 -1.01581395e-01
   8.40524882e-02  3.21070515e-02 -7.18637090e-03  2.59020329e-02
  -3.13404831e-03 -1.36553198e-02  4.83642295e-02 -5.16847707e-02
  -3.44697088e-02 -1.86713145e-03 -5.79417031e-03  5.05562425e-02
  -2.34844893e-01  5.71466163e-02 -3.98166813e-02 -2.16689426e-03
   3.35166566e-02  1.92164332e-02 -3.27559188e-02 -5.29318629e-03
  -2.20718756e-02 -2.08187886e-02  1.27761737e-01  1.21023823e-02
   2.82052383e-02  4.59183156e-02  8.78590718e-02 -1.11893900e-02
   1.35738552e-02 -4.38587889e-02 -1.54553622e-01 -4.35036272e-02
  -7.84185827e-02  5.97801656e-02 -5.99024035e-02  1.50398672e-01
   7.11682364e-02 -5.80048412e-02  2.79593527e-01 -1.94107890e-02
  -4.03057449e-02  1.86149608e-02 -1.25004858e-01 -2.35546120e-02
  -2.34364774e-02 -1.09065417e-02 -3.55185159e-02  2.02997532e-02
   5.31853735e-02 -1.27476677e-02 -1.87354684e-02 -2.37527713e-02
   8.74023959e-02 -1.54018747e-02 -3.79821956e-02  1.07043028e-01
  -1.01803569e-02 -1.39303925e-03 -9.29553956e-02  1.49175571e-02
  -8.04758593e-02  2.64445078e-02  8.25789794e-02  5.20254634e-02
  -3.57368328e-02 -6.11677729e-02 -8.87872130e-02  5.09149879e-02
   5.35394549e-02 -3.96045372e-02 -3.52909528e-02 -5.04012704e-02
  -3.58112268e-02  1.75446086e-02 -1.74031723e-02 -5.90154901e-02
  -2.30747443e-02 -2.22413525e-01 -3.69382352e-02  3.90694812e-02
  -1.37213007e-01 -5.98995388e-02  1.73888803e-01 -5.71008436e-02
  -2.19607651e-02 -2.65228748e-01 -1.86189450e-02  3.45573872e-02
  -1.24572944e-02 -3.16927442e-03  3.50214392e-02  2.27691844e-01
  -7.72041327e-04  1.29186362e-01 -5.20079434e-02  2.68312860e-02
  -4.47495505e-02  1.49623528e-02 -5.65041341e-02 -6.71435148e-02
  -3.52920070e-02  5.61658703e-02 -2.17777807e-02 -1.47116743e-02
   1.55408978e-02 -2.73437798e-02 -3.95060815e-02 -4.79570925e-02
  -5.08919023e-02 -5.56642935e-02 -1.10687399e-02 -3.43818241e-03]
 [-4.22615483e-02  6.90605072e-03 -1.99001355e-04  1.09746885e-02
  -4.19634543e-02 -3.44280861e-02  1.68800242e-02 -9.81557462e-03
  -4.27887179e-02  1.09436018e-02 -1.02425637e-02  5.44349886e-02
   5.57252846e-04 -5.87003268e-02  5.81195951e-03  1.16200797e-01
  -1.08521067e-01 -7.77782500e-02  5.76798469e-02 -2.24360125e-03
  -4.45094658e-04 -3.06986645e-02  8.70511681e-03 -1.99364275e-02
  -1.06733084e-01  1.93867111e-03 -4.42018211e-02 -3.90887558e-02
   4.58042398e-02 -1.63027514e-02 -1.97989717e-02  7.02580959e-02
   2.45005563e-02 -3.98452021e-03 -5.67688514e-03  4.56527509e-02
   1.26556903e-01 -1.03842504e-02 -2.57373718e-03  5.20771779e-02
  -5.01231775e-02  3.07452511e-02 -1.58410426e-02 -6.72961446e-03
  -2.26158591e-05 -5.54322861e-02  3.43091190e-02 -3.63330767e-02
